{"learner":{"attributes":{"best_iteration":"467","best_score":"0.02749073770881648","scikit_learn":"{\"_estimator_type\": \"classifier\"}"},"feature_names":[],"feature_types":[],"gradient_booster":{"model":{"cats":{"enc":[],"feature_segments":[],"sorted_idx":[]},"gbtree_model_param":{"num_parallel_tree":"1","num_trees":"518"},"iteration_indptr":[0,1,2,3,4,5,6,7,8,9,10,11,12,13,14,15,16,17,18,19,20,21,22,23,24,25,26,27,28,29,30,31,32,33,34,35,36,37,38,39,40,41,42,43,44,45,46,47,48,49,50,51,52,53,54,55,56,57,58,59,60,61,62,63,64,65,66,67,68,69,70,71,72,73,74,75,76,77,78,79,80,81,82,83,84,85,86,87,88,89,90,91,92,93,94,95,96,97,98,99,100,101,102,103,104,105,106,107,108,109,110,111,112,113,114,115,116,117,118,119,120,121,122,123,124,125,126,127,128,129,130,131,132,133,134,135,136,137,138,139,140,141,142,143,144,145,146,147,148,149,150,151,152,153,154,155,156,157,158,159,160,161,162,163,164,165,166,167,168,169,170,171,172,173,174,175,176,177,178,179,180,181,182,183,184,185,186,187,188,189,190,191,192,193,194,195,196,197,198,199,200,201,202,203,204,205,206,207,208,209,210,211,212,213,214,215,216,217,218,219,220,221,222,223,224,225,226,227,228,229,230,231,232,233,234,235,236,237,238,239,240,241,242,243,244,245,246,247,248,249,250,251,252,253,254,255,256,257,258,259,260,261,262,263,264,265,266,267,268,269,270,271,272,273,274,275,276,277,278,279,280,281,282,283,284,285,286,287,288,289,290,291,292,293,294,295,296,297,298,299,300,301,302,303,304,305,306,307,308,309,310,311,312,313,314,315,316,317,318,319,320,321,322,323,324,325,326,327,328,329,330,331,332,333,334,335,336,337,338,339,340,341,342,343,344,345,346,347,348,349,350,351,352,353,354,355,356,357,358,359,360,361,362,363,364,365,366,367,368,369,370,371,372,373,374,375,376,377,378,379,380,381,382,383,384,385,386,387,388,389,390,391,392,393,394,395,396,397,398,399,400,401,402,403,404,405,406,407,408,409,410,411,412,413,414,415,416,417,418,419,420,421,422,423,424,425,426,427,428,429,430,431,432,433,434,435,436,437,438,439,440,441,442,443,444,445,446,447,448,449,450,451,452,453,454,455,456,457,458,459,460,461,462,463,464,465,466,467,468,469,470,471,472,473,474,475,476,477,478,479,480,481,482,483,484,485,486,487,488,489,490,491,492,493,494,495,496,497,498,499,500,501,502,503,504,505,506,507,508,509,510,511,512,513,514,515,516,517,518],"tree_info":[0,0,0,0,0,0,0,0,0,0,0,0,0,0,0,0,0,0,0,0,0,0,0,0,0,0,0,0,0,0,0,0,0,0,0,0,0,0,0,0,0,0,0,0,0,0,0,0,0,0,0,0,0,0,0,0,0,0,0,0,0,0,0,0,0,0,0,0,0,0,0,0,0,0,0,0,0,0,0,0,0,0,0,0,0,0,0,0,0,0,0,0,0,0,0,0,0,0,0,0,0,0,0,0,0,0,0,0,0,0,0,0,0,0,0,0,0,0,0,0,0,0,0,0,0,0,0,0,0,0,0,0,0,0,0,0,0,0,0,0,0,0,0,0,0,0,0,0,0,0,0,0,0,0,0,0,0,0,0,0,0,0,0,0,0,0,0,0,0,0,0,0,0,0,0,0,0,0,0,0,0,0,0,0,0,0,0,0,0,0,0,0,0,0,0,0,0,0,0,0,0,0,0,0,0,0,0,0,0,0,0,0,0,0,0,0,0,0,0,0,0,0,0,0,0,0,0,0,0,0,0,0,0,0,0,0,0,0,0,0,0,0,0,0,0,0,0,0,0,0,0,0,0,0,0,0,0,0,0,0,0,0,0,0,0,0,0,0,0,0,0,0,0,0,0,0,0,0,0,0,0,0,0,0,0,0,0,0,0,0,0,0,0,0,0,0,0,0,0,0,0,0,0,0,0,0,0,0,0,0,0,0,0,0,0,0,0,0,0,0,0,0,0,0,0,0,0,0,0,0,0,0,0,0,0,0,0,0,0,0,0,0,0,0,0,0,0,0,0,0,0,0,0,0,0,0,0,0,0,0,0,0,0,0,0,0,0,0,0,0,0,0,0,0,0,0,0,0,0,0,0,0,0,0,0,0,0,0,0,0,0,0,0,0,0,0,0,0,0,0,0,0,0,0,0,0,0,0,0,0,0,0,0,0,0,0,0,0,0,0,0,0,0,0,0,0,0,0,0,0,0,0,0,0,0,0,0,0,0,0,0,0,0,0,0,0,0,0,0,0,0,0,0,0,0,0,0,0,0,0,0,0,0,0,0,0,0,0,0,0,0,0,0,0,0,0,0,0,0,0,0,0,0,0,0,0,0,0,0,0,0,0,0,0,0,0,0,0,0,0,0,0,0,0,0,0,0,0,0,0,0,0,0,0,0,0,0,0],"trees":[{"base_weights":[-2.9970063E-3,1.7568245E0,-8.4042805E-1,-1.1890632E0,1.9020317E0,2.6989853E-1,-1.450732E0,-9.834025E-2,1.3626972E0,1.9669608E0,1.2751929E0,-1.8774527E-1,1.5018871E0,-1.5859238E0,9.882783E-2,-6.0000002E-2,8.268833E-2,9.8584704E-2,1.1358349E0,-9.633028E-2,9.838885E-2,-4.1450733E-1,9.882783E-2,1.8652358E0,7.6395893E-1,-1.6635882E0,1.6469762E0,8.845889E-2,-6.363636E-2,-7.2877306E-1,1.1348946E0,-5.555556E-2,9.435312E-2,-8.9999996E-2,1.006301E0,-1.0350312E0,-1.7888042E0,-7.1428575E-2,1.835011E0,-4.7334906E-2,3.1782392E-2,-8.9999996E-2,6.771822E-2,5.5621352E-2,-7.777778E-2,-2.3766793E-2,-8.91257E-2,-9.101193E-2,-1.1640301E-2,-5E-2,9.578841E-2],"categories":[],"categories_nodes":[],"categories_segments":[],"categories_sizes":[],"default_left":[0,0,0,0,0,0,0,0,0,0,0,0,0,0,0,0,0,0,0,0,0,0,0,0,0,0,0,0,0,0,0,0,0,0,0,0,0,0,0,0,0,0,0,0,0,0,0,0,0,0,0],"id":0,"left_children":[1,3,5,7,9,11,13,-1,15,17,19,21,23,25,-1,-1,-1,-1,27,-1,-1,29,-1,31,33,35,37,-1,-1,39,41,-1,-1,-1,43,45,47,-1,49,-1,-1,-1,-1,-1,-1,-1,-1,-1,-1,-1,-1],"loss_changes":[7.5371514E3,7.076504E2,2.348621E3,1.5763727E2,6.1469727E1,6.937626E2,1.0393223E3,0E0,1.6029766E1,3.3569336E0,3.3727173E2,4.4140753E2,8.792981E1,5.4307227E2,0E0,0E0,0E0,0E0,1.8138706E1,0E0,0E0,3.9689905E2,0E0,1.6558289E1,7.118363E1,1.6359033E2,3.2108337E1,0E0,0E0,2.018605E2,9.104021E1,0E0,0E0,0E0,2.9638023E1,1.4623291E2,8.524414E1,0E0,1.3017014E1,0E0,0E0,0E0,0E0,0E0,0E0,0E0,0E0,0E0,0E0,0E0,0E0],"parents":[2147483647,0,0,1,1,2,2,3,3,4,4,5,5,6,6,8,8,9,9,10,10,11,11,12,12,13,13,18,18,21,21,23,23,24,24,25,25,26,26,29,29,30,30,34,34,35,35,36,36,38,38],"right_children":[2,4,6,8,10,12,14,-1,16,18,20,22,24,26,-1,-1,-1,-1,28,-1,-1,30,-1,32,34,36,38,-1,-1,40,42,-1,-1,-1,44,46,48,-1,50,-1,-1,-1,-1,-1,-1,-1,-1,-1,-1,-1,-1],"split_conditions":[2.563758E-1,1.25E-2,3E0,5.8137155E0,8.9561954E-2,1.1E1,1E0,-9.834025E-2,1.412E1,1.6E1,5.8137155E0,1E0,1.2E1,1E0,9.882783E-2,-6.0000002E-2,8.268833E-2,9.8584704E-2,4E0,-9.633028E-2,9.838885E-2,1E0,9.882783E-2,2.1081564E0,2E0,1.4956856E-1,1.44E1,8.845889E-2,-6.363636E-2,6.1059284E0,2E0,-5.555556E-2,9.435312E-2,-8.9999996E-2,7E0,7.14584E1,1.135525E2,-7.1428575E-2,2E0,-4.7334906E-2,3.1782392E-2,-8.9999996E-2,6.771822E-2,5.5621352E-2,-7.777778E-2,-2.3766793E-2,-8.91257E-2,-9.101193E-2,-1.1640301E-2,-5E-2,9.578841E-2],"split_indices":[13,13,19,16,13,0,20,0,14,19,16,20,0,17,0,0,0,0,2,0,0,17,0,16,2,16,14,0,0,16,7,0,0,0,2,15,14,0,7,0,0,0,0,0,0,0,0,0,0,0,0],"split_type":[0,0,0,0,0,0,0,0,0,0,0,0,0,0,0,0,0,0,0,0,0,0,0,0,0,0,0,0,0,0,0,0,0,0,0,0,0,0,0,0,0,0,0,0,0,0,0,0,0,0,0],"sum_hessian":[5.112338E3,1.6480149E3,3.4643228E3,7.707935E1,1.5709355E3,1.2289857E3,2.2353372E3,5.925E1,1.7829355E1,1.4215507E3,1.4938484E2,8.967279E2,3.3225775E2,2.1510256E3,8.4311455E1,1.5E0,1.6329355E1,1.412136E3,9.414678E0,2.625E1,1.2313484E2,8.1241644E2,8.4311455E1,2.2161098E2,1.10646774E2,2.1010376E3,4.9988068E1,7.6646776E0,1.75E0,6.7586096E2,1.3655548E2,1.25E0,2.2036098E2,9E0,1.01646774E2,3.5056146E2,1.7504761E3,2.5E0,4.7488068E1,5.830436E2,9.281742E1,9E0,1.2755549E2,9.8146774E1,3.5E0,2.0139677E2,1.4916467E2,1.7156467E3,3.4829353E1,1E0,4.6488068E1],"tree_param":{"num_deleted":"0","num_feature":"22","num_nodes":"51","size_leaf_vector":"1"}},{"base_weights":[-7.035599E-3,1.6885486E0,-8.3715343E-1,-8.085166E-1,1.814314E0,-1.3031176E0,3.1978467E-1,-9.38074E-2,8.80877E-2,1.8738843E0,1.2829154E0,-1.3956138E0,9.3929954E-2,-2.249197E-1,1.3574477E0,9.394058E-2,1.3878012E0,-9.158336E-2,1.8243397E0,-1.5224957E0,9.923748E-1,-5.4158276E-1,9.417521E-2,7.98657E-1,1.747529E0,8.9891545E-2,-6.522869E-2,8.680706E-1,9.458715E-2,-5.356078E-1,-1.7008828E0,1.5081565E0,-9.7612195E-2,-8.31123E-1,1.6192303E0,1.0083936E0,-8.964994E-2,1.7949209E0,-7.140022E-2,8.429088E-2,-7.019313E-2,-4.8284248E-2,2.909301E-2,-8.788763E-2,2.2801615E-2,-8.6145185E-2,9.1194294E-2,-5.6180228E-2,7.295949E-3,8.956929E-2,-7.7605136E-2,-8.731873E-2,5.8243096E-2,-6.6425554E-2,9.168349E-2],"categories":[],"categories_nodes":[],"categories_segments":[],"categories_sizes":[],"default_left":[0,0,0,0,0,0,0,0,0,0,0,0,0,0,0,0,0,0,0,0,0,0,0,0,0,0,0,0,0,0,0,0,0,0,0,0,0,0,0,0,0,0,0,0,0,0,0,0,0,0,0,0,0,0,0],"id":1,"left_children":[1,3,5,7,9,11,13,-1,-1,15,17,19,-1,21,23,-1,25,-1,27,29,31,33,-1,35,37,-1,-1,39,-1,41,43,45,-1,47,49,51,-1,53,-1,-1,-1,-1,-1,-1,-1,-1,-1,-1,-1,-1,-1,-1,-1,-1,-1],"loss_changes":[7.2233066E3,5.311626E2,1.8576914E3,2.2713875E2,4.8438477E1,7.254761E2,5.5986096E2,0E0,0E0,8.461914E-1,2.8169992E2,7.24876E2,0E0,4.3503424E2,7.291736E1,0E0,2.254461E1,0E0,7.454132E0,3.9825E2,1.8680197E2,3.554261E2,0E0,7.8992424E1,3.265155E1,0E0,0E0,2.3063828E1,0E0,1.6807785E2,2.3628857E2,1.0880505E2,0E0,1.4297128E2,3.947615E1,5.8933136E1,0E0,2.6331238E1,0E0,0E0,0E0,0E0,0E0,0E0,0E0,0E0,0E0,0E0,0E0,0E0,0E0,0E0,0E0,0E0,0E0],"parents":[2147483647,0,0,1,1,2,2,3,3,4,4,5,5,6,6,9,9,10,10,11,11,13,13,14,14,16,16,18,18,19,19,20,20,21,21,23,23,24,24,27,27,29,29,30,30,31,31,33,33,34,34,35,35,37,37],"right_children":[2,4,6,8,10,12,14,-1,-1,16,18,20,-1,22,24,-1,26,-1,28,30,32,34,-1,36,38,-1,-1,40,-1,42,44,46,-1,48,50,52,-1,54,-1,-1,-1,-1,-1,-1,-1,-1,-1,-1,-1,-1,-1,-1,-1,-1,-1],"split_conditions":[2.563758E-1,1.25E-2,4.067E1,1.881668E2,8.9561954E-2,1E0,8E0,-9.38074E-2,8.80877E-2,1.6E1,7.687E1,1E0,9.3929954E-2,1E0,2.0624E2,9.394058E-2,1E0,-9.158336E-2,3.9738E2,4.99E0,3E0,1E0,9.417521E-2,4.3093334E1,1.2E1,8.9891545E-2,-6.522869E-2,7.989E1,9.458715E-2,6E0,1.1E1,2E0,-9.7612195E-2,1E0,3E0,2.2E1,-8.964994E-2,1E1,-7.140022E-2,8.429088E-2,-7.019313E-2,-4.8284248E-2,2.909301E-2,-8.788763E-2,2.2801615E-2,-8.6145185E-2,9.1194294E-2,-5.6180228E-2,7.295949E-3,8.956929E-2,-7.7605136E-2,-8.731873E-2,5.8243096E-2,-6.6425554E-2,9.168349E-2],"split_indices":[13,13,1,1,13,20,0,0,0,19,1,17,0,20,1,0,21,0,1,1,7,17,0,14,0,0,0,1,0,7,0,7,0,18,7,21,0,0,0,0,0,0,0,0,0,0,0,0,0,0,0,0,0,0,0],"split_type":[0,0,0,0,0,0,0,0,0,0,0,0,0,0,0,0,0,0,0,0,0,0,0,0,0,0,0,0,0,0,0,0,0,0,0,0,0,0,0,0,0,0,0,0,0,0,0,0,0,0,0,0,0,0,0],"sum_hessian":[5.129881E3,1.6856887E3,3.4441924E3,8.056893E1,1.6051198E3,2.4552131E3,9.889792E2,5.711481E1,2.3454123E1,1.4410504E3,1.640694E2,2.3863992E3,6.8813934E1,6.4905273E2,3.3992645E2,1.4237533E3,1.7297148E1,2.3944408E1,1.4012498E2,2.266343E3,1.20056145E2,5.6494684E2,8.410592E1,1.4099655E2,1.989299E2,1.5299406E1,1.997741E0,1.0140292E1,1.299847E2,3.475577E2,1.9187854E3,1.0257658E2,1.747957E1,4.9873386E2,6.621296E1,1.310055E2,9.99106E0,1.9643307E2,2.4968183E0,7.646158E0,2.4941344E0,2.5106628E2,9.649143E1,1.8696742E3,4.9111202E1,8.73445E0,9.3842125E1,3.8371667E2,1.1501718E2,6.3216393E1,2.9965634E0,6.4949384E0,1.2451056E2,1.9991876E0,1.9443388E2],"tree_param":{"num_deleted":"0","num_feature":"22","num_nodes":"55","size_leaf_vector":"1"}},{"base_weights":[1.8583862E-2,1.6124738E0,-7.8611386E-1,-5.728958E-1,1.7353405E0,-1.2888508E0,3.777477E-1,-8.984739E-2,8.778822E-2,1.79035E0,1.2031014E0,-1.4893242E0,-1.5162408E-1,-8.842011E-2,1.2953446E0,1.6843431E0,9.05345E-2,-8.787162E-2,1.7551974E0,-1.5372795E0,6.783587E-1,-4.7718027E-1,8.5645497E-1,1.1203122E0,-3.5476398E-1,6.775348E-1,1.6776195E0,1.7453991E0,-8.537627E-2,9.601094E-1,9.0480395E-2,-9.182407E-1,-1.636701E0,1.234368E0,-8.716291E-2,2.6763484E-2,-1.2989911E0,-8.1189975E-2,1.0570779E0,-7.803147E-2,1.2455283E0,-5.7436156E-1,1.525459E0,8.685814E-1,-8.667085E-2,1.7243344E0,-7.04877E-2,6.185614E-2,8.8918015E-2,8.099592E-2,-6.296747E-2,-6.513471E-2,1.156455E-2,-3.940306E-2,-8.554238E-2,-7.62062E-2,8.432039E-2,-1.8094912E-2,7.790769E-2,-9.343996E-2,3.8881008E-2,6.1852515E-2,-7.769455E-2,-7.045936E-2,6.630166E-2,-4.583567E-2,1.927602E-2,8.320026E-2,-6.838455E-2,-8.403235E-2,5.1372893E-2,-6.117468E-2,8.77365E-2],"categories":[],"categories_nodes":[],"categories_segments":[],"categories_sizes":[],"default_left":[0,0,0,0,0,0,0,0,0,0,0,0,0,0,0,0,0,0,0,0,0,0,0,0,0,0,0,0,0,0,0,0,0,0,0,0,0,0,0,0,0,0,0,0,0,0,0,0,0,0,0,0,0,0,0,0,0,0,0,0,0,0,0,0,0,0,0,0,0,0,0,0,0],"id":2,"left_children":[1,3,5,7,9,11,13,-1,-1,15,17,19,21,23,25,27,-1,-1,29,31,33,35,37,39,41,43,45,47,-1,49,-1,51,53,55,-1,57,59,-1,61,-1,63,65,67,69,-1,71,-1,-1,-1,-1,-1,-1,-1,-1,-1,-1,-1,-1,-1,-1,-1,-1,-1,-1,-1,-1,-1,-1,-1,-1,-1,-1,-1],"loss_changes":[6.5979785E3,4.6439258E2,2.0006558E3,2.6714978E2,4.569287E1,5.440762E2,4.4153662E2,0E0,0E0,1.3867188E-1,2.582792E2,2.1201855E2,1.18197464E2,2.2100282E2,8.098364E1,5.5259216E1,0E0,0E0,3.9769592E0,1.2072266E2,6.2231922E1,1.12656364E2,4.549076E1,4.3560043E1,2.3303375E2,6.3497337E1,3.3313232E1,1.9626465E0,0E0,1.7549166E1,0E0,1.22760605E2,1.0624121E2,4.8551205E1,0E0,1.0147784E2,1.2378946E2,0E0,4.045137E1,0E0,2.7299652E1,1.660409E2,2.5955322E1,5.250405E1,0E0,2.1086975E1,0E0,0E0,0E0,0E0,0E0,0E0,0E0,0E0,0E0,0E0,0E0,0E0,0E0,0E0,0E0,0E0,0E0,0E0,0E0,0E0,0E0,0E0,0E0,0E0,0E0,0E0,0E0],"parents":[2147483647,0,0,1,1,2,2,3,3,4,4,5,5,6,6,9,9,10,10,11,11,12,12,13,13,14,14,15,15,18,18,19,19,20,20,21,21,22,22,23,23,24,24,25,25,26,26,27,27,29,29,31,31,32,32,33,33,35,35,36,36,38,38,40,40,41,41,42,42,43,43,45,45],"right_children":[2,4,6,8,10,12,14,-1,-1,16,18,20,22,24,26,28,-1,-1,30,32,34,36,38,40,42,44,46,48,-1,50,-1,52,54,56,-1,58,60,-1,62,-1,64,66,68,70,-1,72,-1,-1,-1,-1,-1,-1,-1,-1,-1,-1,-1,-1,-1,-1,-1,-1,-1,-1,-1,-1,-1,-1,-1,-1,-1,-1,-1],"split_conditions":[2.563758E-1,1.25E-2,3.968E1,1.5422E2,8.9561954E-2,1E0,8E0,-8.984739E-2,8.778822E-2,1.533E1,7.687E1,1E0,3.4169586E1,1.5257474E0,2.0624E2,5E-2,9.05345E-2,-8.787162E-2,3.9738E2,4.99E0,3E0,1.8773E1,2E0,5.1825047E0,1E0,5.9752514E1,1.2E1,4E1,-8.537627E-2,7.989E1,9.0480395E-2,6E0,9.256667E0,2E0,-8.716291E-2,1.2349139E1,1.6998569E2,-8.1189975E-2,6E0,-7.803147E-2,4.7540814E-1,4E0,3E0,2.2E1,-8.667085E-2,1E1,-7.04877E-2,6.185614E-2,8.8918015E-2,8.099592E-2,-6.296747E-2,-6.513471E-2,1.156455E-2,-3.940306E-2,-8.554238E-2,-7.62062E-2,8.432039E-2,-1.8094912E-2,7.790769E-2,-9.343996E-2,3.8881008E-2,6.1852515E-2,-7.769455E-2,-7.045936E-2,6.630166E-2,-4.583567E-2,1.927602E-2,8.320026E-2,-6.838455E-2,-8.403235E-2,5.1372893E-2,-6.117468E-2,8.77365E-2],"split_indices":[13,13,1,1,13,18,0,0,0,1,1,17,13,13,1,13,0,0,1,1,7,14,11,15,17,15,0,4,0,1,0,7,14,7,0,15,15,0,2,0,13,3,7,21,0,0,0,0,0,0,0,0,0,0,0,0,0,0,0,0,0,0,0,0,0,0,0,0,0,0,0,0,0],"split_type":[0,0,0,0,0,0,0,0,0,0,0,0,0,0,0,0,0,0,0,0,0,0,0,0,0,0,0,0,0,0,0,0,0,0,0,0,0,0,0,0,0,0,0,0,0,0,0,0,0,0,0,0,0,0,0,0,0,0,0,0,0,0,0,0,0,0,0,0,0,0,0,0,0],"sum_hessian":[5.142235E3,1.724822E3,3.4174126E3,9.16167E1,1.6332053E3,2.3864597E3,1.0309529E3,6.020073E1,3.1415968E1,1.4780751E3,1.5513017E2,2.0285516E3,3.579082E2,6.842408E2,3.4671207E2,2.5143991E2,1.2266353E3,2.4039368E1,1.310908E2,1.9849302E3,4.3621403E1,2.7093665E2,8.697156E1,1.229695E2,5.612713E2,1.3358783E2,2.1312424E2,2.4747067E2,3.9692326E0,9.590635E0,1.2150017E2,2.7609393E2,1.7088363E3,3.5874744E1,7.746659E0,1.6854832E2,1.0238832E2,5.9776354E0,8.099392E1,4.975617E0,1.1799388E2,5.031959E2,5.8075424E1,1.2437216E2,9.21566E0,2.1038243E2,2.7418015E0,1.7417456E1,2.3005322E2,7.601085E0,1.9895496E0,2.0679831E2,6.9295616E1,1.3824065E2,1.5705956E3,4.717203E0,3.115754E1,1.3503944E2,3.3508877E1,8.0421326E1,2.1966995E1,7.626335E1,4.7305737E0,2.9871004E0,1.1500678E2,3.7094095E2,1.3225494E2,5.5826855E1,2.248568E0,6.734611E0,1.1763755E2,1.7465467E0,2.0863588E2],"tree_param":{"num_deleted":"0","num_feature":"22","num_nodes":"73","size_leaf_vector":"1"}},{"base_weights":[-1.796388E-2,1.5460768E0,-7.7937704E-1,-5.747523E-1,1.6731614E0,-1.2149919E0,2.725427E-1,-8.633421E-2,8.382275E-2,1.7257018E0,1.0026484E0,-1.3071359E0,8.768562E-1,-3.1781632E-1,9.8859495E-1,8.649533E-2,9.7242E-1,-8.485522E-2,8.669713E-2,-1.3790171E0,8.829326E-1,1.3659072E0,-8.9085236E-2,8.47036E-1,-7.867075E-1,4.3958917E-1,1.514115E0,-6.011181E-2,7.786755E-2,-3.9039665E-1,-1.5626681E0,-8.345639E-2,1.1342875E0,-7.9961546E-2,8.426056E-2,-7.982962E-2,9.584511E-1,-1.0006129E0,8.051174E-2,7.541597E-1,-1.1405025E0,-6.688377E-2,1.5418899E0,-3.80917E-2,3.045684E-2,-4.82111E-2,-8.332844E-2,7.6940164E-2,-7.2451583E-3,-7.6948225E-2,5.249851E-2,-6.766484E-2,-4.2146924E-3,4.313076E-2,-8.388767E-2,4.2547908E-2,-9.459667E-2,7.822428E-2,-5.599627E-2],"categories":[],"categories_nodes":[],"categories_segments":[],"categories_sizes":[],"default_left":[0,0,0,0,0,0,0,0,0,0,0,0,0,0,0,0,0,0,0,0,0,0,0,0,0,0,0,0,0,0,0,0,0,0,0,0,0,0,0,0,0,0,0,0,0,0,0,0,0,0,0,0,0,0,0,0,0,0,0],"id":3,"left_children":[1,3,5,7,9,11,13,-1,-1,15,17,19,21,23,25,-1,27,-1,-1,29,31,33,-1,35,37,39,41,-1,-1,43,45,-1,47,-1,-1,-1,49,51,-1,53,55,-1,57,-1,-1,-1,-1,-1,-1,-1,-1,-1,-1,-1,-1,-1,-1,-1,-1],"loss_changes":[5.984863E3,4.444663E2,1.5491816E3,2.4606831E2,5.297168E1,4.6190088E2,4.190875E2,0E0,0E0,2.8735352E0,2.3041425E2,3.617141E2,1.3433804E2,2.9764874E2,1.2856232E2,0E0,1.4934368E1,0E0,0E0,4.020161E2,4.8965168E1,8.435942E1,0E0,4.4148277E1,2.006484E2,1.10444244E2,2.0156921E1,0E0,0E0,1.2994044E2,1.1465723E2,0E0,3.5097733E1,0E0,0E0,0E0,3.5976578E1,1.1526163E2,0E0,5.0101074E1,5.6982117E1,0E0,1.5387146E1,0E0,0E0,0E0,0E0,0E0,0E0,0E0,0E0,0E0,0E0,0E0,0E0,0E0,0E0,0E0,0E0],"parents":[2147483647,0,0,1,1,2,2,3,3,4,4,5,5,6,6,9,9,10,10,11,11,12,12,13,13,14,14,16,16,19,19,20,20,21,21,23,23,24,24,25,25,26,26,29,29,30,30,32,32,36,36,37,37,39,39,40,40,42,42],"right_children":[2,4,6,8,10,12,14,-1,-1,16,18,20,22,24,26,-1,28,-1,-1,30,32,34,-1,36,38,40,42,-1,-1,44,46,-1,48,-1,-1,-1,50,52,-1,54,56,-1,58,-1,-1,-1,-1,-1,-1,-1,-1,-1,-1,-1,-1,-1,-1,-1,-1],"split_conditions":[2.563758E-1,1.25E-2,3.968E1,1.5422E2,8.9561954E-2,1E0,1E0,-8.633421E-2,8.382275E-2,1.6E1,1.881668E2,1.1E1,3E0,2.4291742E0,1.5422E2,8.649533E-2,3.968E1,-8.485522E-2,8.669713E-2,4.99E0,1.334E1,2E0,-8.9085236E-2,6E-1,1E0,7.989E1,1.7830807E0,-6.011181E-2,7.786755E-2,6E0,2.2819645E0,-8.345639E-2,1.0483611E1,-7.9961546E-2,8.426056E-2,-7.982962E-2,1E0,4.9E1,8.051174E-2,6.0044846E1,1.5257474E0,-6.688377E-2,1.2E1,-3.80917E-2,3.045684E-2,-4.82111E-2,-8.332844E-2,7.6940164E-2,-7.2451583E-3,-7.6948225E-2,5.249851E-2,-6.766484E-2,-4.2146924E-3,4.313076E-2,-8.388767E-2,4.2547908E-2,-9.459667E-2,7.822428E-2,-5.599627E-2],"split_indices":[13,13,1,1,13,17,18,0,0,19,1,0,7,13,1,0,1,0,0,1,1,7,0,13,17,1,13,0,0,7,13,0,13,0,0,0,21,21,0,14,13,0,0,0,0,0,0,0,0,0,0,0,0,0,0,0,0,0,0],"split_type":[0,0,0,0,0,0,0,0,0,0,0,0,0,0,0,0,0,0,0,0,0,0,0,0,0,0,0,0,0,0,0,0,0,0,0,0,0,0,0,0,0,0,0,0,0,0,0,0,0,0,0,0,0,0,0,0,0,0,0],"sum_hessian":[5.023564E3,1.6445062E3,3.3790579E3,9.277221E1,1.551734E3,2.3894128E3,9.8964496E2,6.1523785E1,3.1248428E1,1.4375184E3,1.14215515E2,2.2889614E3,1.00451515E2,5.427355E2,4.469095E2,1.4282498E3,9.268727E0,2.4062433E1,9.015308E1,2.2165806E3,7.238096E1,8.525483E1,1.5196684E1,1.5553589E2,3.871996E2,2.194689E2,2.2744058E2,1.7409347E0,7.527793E0,3.4774478E2,1.8688357E3,5.9839625E0,6.6396996E1,7.898534E0,7.73563E1,6.20102E0,1.4933487E2,3.5601135E2,3.1188234E1,1.8346643E2,3.600247E1,1.738891E0,2.2570169E2,2.5370363E2,9.404117E1,2.7798428E2,1.5908514E3,5.0290718E1,1.6106277E1,4.7199125E0,1.4461496E2,2.567236E2,9.928775E1,1.7625148E2,7.2149525E0,9.8267975E0,2.617567E1,2.2421066E2,1.4910363E0],"tree_param":{"num_deleted":"0","num_feature":"22","num_nodes":"59","size_leaf_vector":"1"}},{"base_weights":[1.1148369E-2,1.4931854E0,-7.2392404E-1,-5.3534764E-1,1.6097294E0,-1.2793884E0,8.504241E-2,-8.321798E-2,1.5254154E0,-7.021515E-2,1.616686E0,-1.3678175E0,7.7763325E-1,-2.575535E-1,1.3092873E0,8.2795724E-2,5.2198734E-2,8.323042E-2,1.2209804E0,-4.9099386E-1,-1.5545813E0,1.2906368E0,-8.4749304E-2,-4.4490758E-1,1.3862752E0,6.006973E-1,1.6135428E0,-8.139212E-2,8.315614E-2,-9.171518E-2,-1.7988487E-1,-7.727522E-1,-1.6409116E0,-7.56779E-2,8.1194274E-2,7.2401744E-1,-7.850321E-1,-7.801233E-2,1.5257785E0,1.2042674E0,-9.486228E-2,8.235103E-2,-6.1918277E-2,3.4356096E-3,-8.8450305E-2,2.6828906E-2,-8.542203E-2,-8.286623E-2,-2.1565834E-2,-8.055599E-2,4.213997E-2,-1.484426E-2,-6.084926E-2,8.538158E-2,1.1339401E-2,6.922294E-2,-7.8980245E-2],"categories":[],"categories_nodes":[],"categories_segments":[],"categories_sizes":[],"default_left":[0,0,0,0,0,0,0,0,0,0,0,0,0,0,0,0,0,0,0,0,0,0,0,0,0,0,0,0,0,0,0,0,0,0,0,0,0,0,0,0,0,0,0,0,0,0,0,0,0,0,0,0,0,0,0,0,0],"id":4,"left_children":[1,3,5,7,9,11,13,-1,15,-1,17,19,21,23,25,-1,-1,-1,27,29,31,33,-1,35,37,39,41,-1,-1,-1,43,45,47,-1,-1,49,51,-1,53,55,-1,-1,-1,-1,-1,-1,-1,-1,-1,-1,-1,-1,-1,-1,-1,-1,-1],"loss_changes":[5.4577085E3,3.9353906E2,1.5049171E3,2.1424515E2,3.5209473E1,3.6224146E2,5.725377E2,0E0,3.2751465E-1,0E0,2.769873E1,3.110503E2,1.068068E2,3.2916656E2,6.3377655E1,0E0,0E0,0E0,2.207605E2,1.4001363E2,1.0465137E2,6.681951E1,0E0,3.8161145E2,4.734543E1,1.3986273E2,2.1918945E1,0E0,0E0,0E0,1.082774E2,1.9441382E2,2.7324951E1,0E0,0E0,6.141868E1,1.5627786E2,0E0,2.44048E1,3.9360176E1,0E0,0E0,0E0,0E0,0E0,0E0,0E0,0E0,0E0,0E0,0E0,0E0,0E0,0E0,0E0,0E0,0E0],"parents":[2147483647,0,0,1,1,2,2,3,3,4,4,5,5,6,6,8,8,10,10,11,11,12,12,13,13,14,14,18,18,19,19,20,20,21,21,23,23,24,24,25,25,26,26,30,30,31,31,32,32,35,35,36,36,38,38,39,39],"right_children":[2,4,6,8,10,12,14,-1,16,-1,18,20,22,24,26,-1,-1,-1,28,30,32,34,-1,36,38,40,42,-1,-1,-1,44,46,48,-1,-1,50,52,-1,54,56,-1,-1,-1,-1,-1,-1,-1,-1,-1,-1,-1,-1,-1,-1,-1,-1,-1],"split_conditions":[2.563758E-1,1.25E-2,2.106E1,1.5422E2,4.99E0,1E0,1.1E1,-8.321798E-2,1E1,-7.021515E-2,8.9561954E-2,4.99E0,3E0,1E0,2.0624E2,8.2795724E-2,5.2198734E-2,8.323042E-2,5.471976E0,1.33E0,3E0,2E0,-8.4749304E-2,2.0436592E0,2E0,1.1671281E1,1.2E1,-8.139212E-2,8.315614E-2,-9.171518E-2,2.9191738E-1,2.4125946E-1,1.1E1,-7.56779E-2,8.1194274E-2,5.3746295E-1,4E0,-7.801233E-2,3E0,7.687E1,-9.486228E-2,8.235103E-2,-6.1918277E-2,3.4356096E-3,-8.8450305E-2,2.6828906E-2,-8.542203E-2,-8.286623E-2,-2.1565834E-2,-8.055599E-2,4.213997E-2,-1.484426E-2,-6.084926E-2,8.538158E-2,1.1339401E-2,6.922294E-2,-7.8980245E-2],"split_indices":[13,13,1,1,1,17,0,0,6,0,13,1,7,17,1,0,0,0,16,1,0,7,0,13,7,13,0,0,0,0,16,16,0,0,0,13,19,0,7,1,0,0,0,0,0,0,0,0,0,0,0,0,0,0,0,0,0],"split_type":[0,0,0,0,0,0,0,0,0,0,0,0,0,0,0,0,0,0,0,0,0,0,0,0,0,0,0,0,0,0,0,0,0,0,0,0,0,0,0,0,0,0,0,0,0,0,0,0,0,0,0,0,0,0,0,0,0],"sum_hessian":[5.007817E3,1.6599767E3,3.3478403E3,8.999283E1,1.5699838E3,1.9845785E3,1.363262E3,5.8264393E1,3.1728437E1,3.152715E0,1.566831E3,1.9031013E3,8.147716E1,1.0657963E3,2.974656E2,2.3042934E1,8.685503E0,1.394716E3,1.721151E2,3.3481793E2,1.5682833E3,6.787327E1,1.3603891E1,9.57406E2,1.0839025E2,9.0251205E1,2.0721442E2,2.2763435E1,1.4935167E2,6.204093E1,2.72777E2,1.5694066E2,1.4113428E3,6.8330674E0,6.10402E1,2.1553523E2,7.418708E2,4.4393897E0,1.0395087E2,7.310497E1,1.7146227E1,2.0522778E2,1.9866272E0,2.3670448E2,3.6072533E1,6.5588165E1,9.13525E1,1.3920834E3,1.925931E1,9.824835E0,2.057104E2,3.490732E2,3.9279758E2,9.090936E1,1.3041498E1,6.9132904E1,3.9720738E0],"tree_param":{"num_deleted":"0","num_feature":"22","num_nodes":"57","size_leaf_vector":"1"}},{"base_weights":[2.9551566E-2,1.4386579E0,-6.6432047E-1,-1.012925E0,1.558147E0,-1.0151526E0,4.667931E-1,-8.085434E-2,6.5763116E-2,-6.87824E-2,1.5652448E0,-1.1544541E0,9.0372734E-2,-2.0344831E-1,9.639976E-1,8.032418E-2,1.171266E0,-1.2080927E0,1.2326658E0,-3.9206937E-1,8.494264E-2,3.96398E-1,1.31348E0,-7.8615196E-2,8.053178E-2,-5.0151914E-1,-1.3161422E0,1.4488782E0,-7.622969E-2,-6.6046387E-1,8.957601E-1,-8.850049E-2,6.3159347E-1,1.4503804E0,3.752782E-1,-5.188946E-2,1.5499502E-2,-7.36667E-2,-3.2042287E-2,-6.904971E-2,8.1109114E-2,-4.7030054E-2,3.4455176E-2,-2.4215264E-2,8.63392E-2,3.8551953E-2,-8.675266E-2,-6.380653E-2,7.414774E-2,4.168948E-2,-8.0155835E-2],"categories":[],"categories_nodes":[],"categories_segments":[],"categories_sizes":[],"default_left":[0,0,0,0,0,0,0,0,0,0,0,0,0,0,0,0,0,0,0,0,0,0,0,0,0,0,0,0,0,0,0,0,0,0,0,0,0,0,0,0,0,0,0,0,0,0,0,0,0,0,0],"id":5,"left_children":[1,3,5,7,9,11,13,-1,-1,-1,15,17,-1,19,21,-1,23,25,27,29,-1,31,33,-1,-1,35,37,39,-1,41,43,-1,45,47,49,-1,-1,-1,-1,-1,-1,-1,-1,-1,-1,-1,-1,-1,-1,-1,-1],"loss_changes":[4.934381E3,4.8936133E2,1.342397E3,1.118315E2,3.522461E1,1.017062E3,2.6720575E2,0E0,0E0,0E0,2.3866943E1,3.1654468E2,0E0,1.2340377E2,9.076175E1,0E0,1.8799774E2,1.8310254E2,3.474041E1,1.08440186E2,0E0,9.120004E1,3.598105E1,0E0,0E0,1.3996231E2,2.206062E2,2.7307846E1,0E0,9.8484665E1,6.3038902E1,0E0,5.421265E1,2.39021E1,3.5408646E1,0E0,0E0,0E0,0E0,0E0,0E0,0E0,0E0,0E0,0E0,0E0,0E0,0E0,0E0,0E0,0E0],"parents":[2147483647,0,0,1,1,2,2,3,3,4,4,5,5,6,6,10,10,11,11,13,13,14,14,16,16,17,17,18,18,19,19,21,21,22,22,25,25,26,26,27,27,29,29,30,30,32,32,33,33,34,34],"right_children":[2,4,6,8,10,12,14,-1,-1,-1,16,18,-1,20,22,-1,24,26,28,30,-1,32,34,-1,-1,36,38,40,-1,42,44,-1,46,48,50,-1,-1,-1,-1,-1,-1,-1,-1,-1,-1,-1,-1,-1,-1,-1,-1],"split_conditions":[2.563758E-1,1.25E-2,1E0,1.881668E2,4.99E0,1E0,1.7646186E0,-8.085434E-2,6.5763116E-2,-6.87824E-2,8.9561954E-2,1.1E1,9.0372734E-2,1E0,9E0,8.032418E-2,5.8137155E0,4.99E0,1E0,4.2636753E1,8.494264E-2,1.057439E1,1.2E1,-7.8615196E-2,8.053178E-2,3.88E0,4.566E1,3.102E1,-7.622969E-2,2E0,4.9953335E1,-8.850049E-2,3.0073647E1,1.1E1,7.687E1,-5.188946E-2,1.5499502E-2,-7.36667E-2,-3.2042287E-2,-6.904971E-2,8.1109114E-2,-4.7030054E-2,3.4455176E-2,-2.4215264E-2,8.63392E-2,3.8551953E-2,-8.675266E-2,-6.380653E-2,7.414774E-2,4.168948E-2,-8.0155835E-2],"split_indices":[13,13,18,1,1,20,16,0,0,0,13,0,0,20,0,0,16,1,5,13,0,14,0,0,0,1,1,1,0,10,14,0,15,21,1,0,0,0,0,0,0,0,0,0,0,0,0,0,0,0,0],"split_type":[0,0,0,0,0,0,0,0,0,0,0,0,0,0,0,0,0,0,0,0,0,0,0,0,0,0,0,0,0,0,0,0,0,0,0,0,0,0,0,0,0,0,0,0,0,0,0,0,0,0,0],"sum_hessian":[5.044746E3,1.6641461E3,3.3805999E3,7.699267E1,1.5871534E3,2.5803635E3,8.002364E2,6.1372116E1,1.5620556E1,3.36529E0,1.5837882E3,2.4595696E3,1.207939E2,3.4106494E2,4.5917142E2,1.4309314E3,1.5285678E2,2.4060007E3,5.3568913E1,3.1101993E2,3.0045021E1,1.757948E2,2.8337665E2,2.0744255E1,1.3211253E2,3.1987418E2,2.0861265E3,5.011373E1,3.4551811E0,2.5778293E2,5.3236988E1,1.6576977E1,1.5921782E2,2.4681589E2,3.6560745E1,1.9243103E2,1.2744313E2,1.6912622E3,3.9486426E2,2.4897702E0,4.7623962E1,2.1372243E2,4.4060516E1,2.016559E1,3.3071396E1,1.5099521E2,8.222611E0,2.4632485E0,2.4435263E2,3.0151424E1,6.4093213E0],"tree_param":{"num_deleted":"0","num_feature":"22","num_nodes":"51","size_leaf_vector":"1"}},{"base_weights":[2.5453417E-2,-7.606718E-1,7.527634E-1,-5.6356616E-2,-1.1684569E0,1.0529438E0,1.4008772E-1,-1.3952503E0,1.1356563E-1,-7.451432E-2,-1.2829953E0,8.944008E-1,1.4358538E0,-5.011107E-1,6.615517E-1,-8.224745E-2,8.0593413E-1,3.8899705E-1,-7.821334E-1,3.3782804E-1,-7.874574E-2,-6.150834E-1,-1.4361675E0,4.4354433E-3,1.025348E0,1.2870717E0,1.5116935E0,-6.4319605E-1,8.3922535E-2,1.6828847E-1,9.410258E-1,-6.343635E-2,7.5132154E-2,6.9444966E-1,-6.6580665E-1,-2.3725037E-1,-8.217326E-2,-7.682412E-2,6.911801E-1,2.7951068E-1,-1.1846219E0,-1.4593773E0,8.371615E-2,-6.4324594E-1,9.035995E-1,2.157051E-1,1.1359339E0,1.3365973E0,-6.804874E-2,7.667055E-2,1.0465177E0,-8.8282436E-1,7.7358896E-1,6.8192166E-1,-1.2065729E0,1.3812691E0,6.3316333E-1,1.4351308E-2,6.174276E-2,4.248142E-2,-6.695484E-2,-3.5130344E-2,4.6643425E-2,-7.118105E-2,4.3515254E-2,-2.981258E-2,6.1959624E-2,-8.81864E-2,-2.757299E-2,-4.3636523E-2,-7.698995E-2,-8.774061E-2,2.3394872E-2,5.897199E-2,-8.103906E-2,-4.8227053E-2,6.481636E-2,5.904913E-2,-8.917132E-3,-6.729795E-2,6.916923E-2,6.267004E-2,-4.809184E-2,-6.997987E-2,7.123378E-3,7.496064E-2,-7.833623E-2,4.6402603E-2,-7.9862334E-2,-8.5720696E-2,4.6141922E-2,-7.407116E-2,7.573863E-2,4.129705E-2,-3.2833185E-2],"categories":[],"categories_nodes":[],"categories_segments":[],"categories_sizes":[],"default_left":[0,0,0,0,0,0,0,0,0,0,0,0,0,0,0,0,0,0,0,0,0,0,0,0,0,0,0,0,0,0,0,0,0,0,0,0,0,0,0,0,0,0,0,0,0,0,0,0,0,0,0,0,0,0,0,0,0,0,0,0,0,0,0,0,0,0,0,0,0,0,0,0,0,0,0,0,0,0,0,0,0,0,0,0,0,0,0,0,0,0,0,0,0,0,0],"id":6,"left_children":[1,3,5,7,9,11,13,15,17,19,21,23,25,27,29,-1,31,33,35,37,-1,39,41,43,45,47,49,51,-1,53,55,-1,-1,57,59,61,-1,-1,63,65,67,69,-1,71,73,75,77,79,-1,-1,81,83,85,87,89,91,93,-1,-1,-1,-1,-1,-1,-1,-1,-1,-1,-1,-1,-1,-1,-1,-1,-1,-1,-1,-1,-1,-1,-1,-1,-1,-1,-1,-1,-1,-1,-1,-1,-1,-1,-1,-1,-1,-1],"loss_changes":[2.8179333E3,6.801964E2,4.7067517E2,1.979861E2,1.878501E2,1.0301416E2,2.821931E2,5.519124E1,1.908925E2,8.914446E1,1.3802246E2,1.418966E2,3.7120361E0,1.1834269E2,6.3989258E1,0E0,1.7308699E1,1.9104507E2,8.503719E1,7.6016945E1,0E0,1.3027368E2,8.2125244E1,9.212072E1,9.479187E1,2.4903656E1,1.6925659E0,1.2161467E2,0E0,1.2052805E2,3.935434E1,0E0,0E0,1.0074484E2,1.3718716E2,6.2001324E1,0E0,0E0,3.757215E1,8.4798225E1,5.6234848E1,5.036841E1,0E0,1.143936E2,4.8029625E1,1.6551054E2,5.5489258E1,2.3612152E1,0E0,0E0,8.562962E0,1.6187563E2,9.076305E1,7.1069405E1,5.182959E1,4.86026E1,4.443315E1,0E0,0E0,0E0,0E0,0E0,0E0,0E0,0E0,0E0,0E0,0E0,0E0,0E0,0E0,0E0,0E0,0E0,0E0,0E0,0E0,0E0,0E0,0E0,0E0,0E0,0E0,0E0,0E0,0E0,0E0,0E0,0E0,0E0,0E0,0E0,0E0,0E0,0E0],"parents":[2147483647,0,0,1,1,2,2,3,3,4,4,5,5,6,6,7,7,8,8,9,9,10,10,11,11,12,12,13,13,14,14,16,16,17,17,18,18,19,19,21,21,22,22,23,23,24,24,25,25,26,26,27,27,29,29,30,30,33,33,34,34,35,35,38,38,39,39,40,40,41,41,43,43,44,44,45,45,46,46,47,47,50,50,51,51,52,52,53,53,54,54,55,55,56,56],"right_children":[2,4,6,8,10,12,14,16,18,20,22,24,26,28,30,-1,32,34,36,38,-1,40,42,44,46,48,50,52,-1,54,56,-1,-1,58,60,62,-1,-1,64,66,68,70,-1,72,74,76,78,80,-1,-1,82,84,86,88,90,92,94,-1,-1,-1,-1,-1,-1,-1,-1,-1,-1,-1,-1,-1,-1,-1,-1,-1,-1,-1,-1,-1,-1,-1,-1,-1,-1,-1,-1,-1,-1,-1,-1,-1,-1,-1,-1,-1,-1],"split_conditions":[2.106E1,4E0,4E0,5E0,1E0,1.881668E2,6.24E1,1.1E1,5E0,5.5E1,4.99E0,2E0,8E0,1E0,1.2E1,-8.224745E-2,1E0,5E0,1.80846E1,7E0,-7.874574E-2,3.4E1,1E0,4.5760503E0,1E0,5.0060547E1,1.2E1,9.151089E1,8.3922535E-2,1E0,3.3E1,-6.343635E-2,7.5132154E-2,3.649053E1,1.4639875E-1,4E0,-8.217326E-2,-7.682412E-2,2.5E1,6E0,1E0,1.0647766E1,8.371615E-2,6.4E1,1.1918214E1,4E0,2.1E1,4.6326156E0,-6.804874E-2,7.667055E-2,2E0,1.9E1,7E0,4.5343723E1,2.9836E2,3E0,4.802616E1,1.4351308E-2,6.174276E-2,4.248142E-2,-6.695484E-2,-3.5130344E-2,4.6643425E-2,-7.118105E-2,4.3515254E-2,-2.981258E-2,6.1959624E-2,-8.81864E-2,-2.757299E-2,-4.3636523E-2,-7.698995E-2,-8.774061E-2,2.3394872E-2,5.897199E-2,-8.103906E-2,-4.8227053E-2,6.481636E-2,5.904913E-2,-8.917132E-3,-6.729795E-2,6.916923E-2,6.267004E-2,-4.809184E-2,-6.997987E-2,7.123378E-3,7.496064E-2,-7.833623E-2,4.6402603E-2,-7.9862334E-2,-8.5720696E-2,4.6141922E-2,-7.407116E-2,7.573863E-2,4.129705E-2,-3.2833185E-2],"split_indices":[1,19,19,6,0,1,1,0,2,4,1,7,0,20,6,0,17,7,14,19,0,4,20,16,0,15,0,14,0,0,4,0,0,14,16,3,0,0,4,7,5,14,0,4,14,3,6,15,0,0,19,6,6,15,1,7,15,0,0,0,0,0,0,0,0,0,0,0,0,0,0,0,0,0,0,0,0,0,0,0,0,0,0,0,0,0,0,0,0,0,0,0,0,0,0],"split_type":[0,0,0,0,0,0,0,0,0,0,0,0,0,0,0,0,0,0,0,0,0,0,0,0,0,0,0,0,0,0,0,0,0,0,0,0,0,0,0,0,0,0,0,0,0,0,0,0,0,0,0,0,0,0,0,0,0,0,0,0,0,0,0,0,0,0,0,0,0,0,0,0,0,0,0,0,0,0,0,0,0,0,0,0,0,0,0,0,0,0,0,0,0,0,0],"sum_hessian":[4.926552E3,2.3675256E3,2.559026E3,8.68542E2,1.4989838E3,1.7170424E3,8.419836E2,9.700274E1,7.7153925E2,1.422285E2,1.3567552E3,1.2166335E3,5.0040875E2,3.7765433E2,4.6432928E2,8.734695E1,9.655793E0,5.9051807E2,1.8102121E2,1.1217518E2,3.0053318E1,2.5403648E2,1.1027188E3,1.5618391E2,1.0604496E3,1.7502202E2,3.2538675E2,3.5520355E2,2.2450785E1,1.685123E2,2.95817E2,2.2210171E0,7.4347763E0,4.5817908E2,1.3233897E2,1.1165997E2,6.9361244E1,1.7262133E1,9.491305E1,9.901671E1,1.5501978E2,1.0950784E3,7.6404123E0,9.095342E1,6.52305E1,1.2779111E2,9.326585E2,1.7229489E2,2.7271247E0,3.0867917E2,1.6707573E1,3.0413968E2,5.1063858E1,1.2304721E2,4.546509E1,1.2030054E2,1.7551643E2,2.621042E2,1.960749E2,4.062922E1,9.1709755E1,8.017421E1,3.1485758E1,6.8689218E0,8.804413E1,5.1969963E1,4.7046745E1,8.003352E1,7.498625E1,1.3345142E2,9.616269E2,4.5178474E1,4.577495E1,5.928516E1,5.9453363E0,6.113137E1,6.665974E1,9.0184784E2,3.0810686E1,2.4775348E0,1.6981735E2,1.5488038E1,1.2195346E0,2.019744E2,1.0216529E2,3.925277E1,1.1811087E1,1.1158935E2,1.1457868E1,3.6867493E1,8.5976E0,4.910434E0,1.153901E2,1.5300757E2,2.2508873E1],"tree_param":{"num_deleted":"0","num_feature":"22","num_nodes":"95","size_leaf_vector":"1"}},{"base_weights":[2.6748842E-2,1.3693758E0,-6.023835E-1,-4.9515724E-1,1.47919E0,2.2418301E-1,-1.04714E0,-7.7049255E-2,1.4060397E0,1.5280252E0,1.0671556E0,-1.8703587E-1,1.1195889E0,-1.1619153E0,8.26331E-2,1.0785208E0,8.332341E-2,7.661931E-2,1.0996052E0,-7.525077E-2,7.6612346E-2,-3.397776E-1,8.490009E-2,5.9078836E-1,1.3439078E0,-1.2433025E0,1.4612801E0,-7.5614445E-2,7.328003E-2,7.2666995E-2,-6.2491614E-2,-6.2228614E-1,1.0165452E0,9.450715E-1,-9.07906E-2,8.699524E-1,1.4146307E0,-4.3722904E-1,-1.378919E0,-5.8446933E-2,7.916903E-2,-8.549139E-2,-2.1139659E-2,7.039746E-2,-8.152847E-2,5.4827947E-2,-7.843303E-2,-8.655145E-2,6.9139816E-2,6.388643E-2,7.686757E-2,-8.41881E-2,-7.385302E-3,-7.550913E-2,-4.1800212E-2],"categories":[],"categories_nodes":[],"categories_segments":[],"categories_sizes":[],"default_left":[0,0,0,0,0,0,0,0,0,0,0,0,0,0,0,0,0,0,0,0,0,0,0,0,0,0,0,0,0,0,0,0,0,0,0,0,0,0,0,0,0,0,0,0,0,0,0,0,0,0,0,0,0,0,0],"id":7,"left_children":[1,3,5,7,9,11,13,-1,15,17,19,21,23,25,-1,27,-1,-1,29,-1,-1,31,-1,33,35,37,39,-1,-1,-1,-1,41,43,45,-1,47,49,51,53,-1,-1,-1,-1,-1,-1,-1,-1,-1,-1,-1,-1,-1,-1,-1,-1],"loss_changes":[4.139825E3,3.2091602E2,1.2270807E3,1.7659543E2,2.8090088E1,4.3039465E2,6.743196E2,0E0,9.026947E-1,7.780762E-1,1.9350594E2,2.3134396E2,4.2838684E1,4.4631982E2,0E0,1.9120232E1,0E0,0E0,1.5798653E1,0E0,0E0,2.8504034E2,0E0,9.665124E1,7.4002686E0,2.2020923E2,2.2119614E1,0E0,0E0,0E0,0E0,1.3268677E2,1.3525826E2,3.89299E1,0E0,5.0454662E1,1.7731323E0,1.05264626E2,1.21923096E2,0E0,0E0,0E0,0E0,0E0,0E0,0E0,0E0,0E0,0E0,0E0,0E0,0E0,0E0,0E0,0E0],"parents":[2147483647,0,0,1,1,2,2,3,3,4,4,5,5,6,6,8,8,9,9,10,10,11,11,12,12,13,13,15,15,18,18,21,21,23,23,24,24,25,25,26,26,31,31,32,32,33,33,35,35,36,36,37,37,38,38],"right_children":[2,4,6,8,10,12,14,-1,16,18,20,22,24,26,-1,28,-1,-1,30,-1,-1,32,-1,34,36,38,40,-1,-1,-1,-1,42,44,46,-1,48,50,52,54,-1,-1,-1,-1,-1,-1,-1,-1,-1,-1,-1,-1,-1,-1,-1,-1],"split_conditions":[2.563758E-1,1.25E-2,3E0,1.5422E2,8.9561954E-2,4.7774796E0,1E0,-7.7049255E-2,4.637E1,1.6E1,5.8137155E0,1E0,1.5422E2,1E0,8.26331E-2,4E0,8.332341E-2,7.661931E-2,1E0,-7.525077E-2,7.6612346E-2,1E0,8.490009E-2,7.5456867E0,1.102354E1,4.99E0,2E0,-7.5614445E-2,7.328003E-2,7.2666995E-2,-6.2491614E-2,3.1E1,3E0,1.7832916E1,-9.07906E-2,3.7341778E1,9.822427E0,1.33E0,4.067E1,-5.8446933E-2,7.916903E-2,-8.549139E-2,-2.1139659E-2,7.039746E-2,-8.152847E-2,5.4827947E-2,-7.843303E-2,-8.655145E-2,6.9139816E-2,6.388643E-2,7.686757E-2,-8.41881E-2,-7.385302E-3,-7.550913E-2,-4.1800212E-2],"split_indices":[13,13,19,1,13,16,20,0,14,19,16,20,1,17,0,11,0,0,21,0,0,17,0,16,16,1,7,0,0,0,0,4,7,14,0,14,15,1,1,0,0,0,0,0,0,0,0,0,0,0,0,0,0,0,0],"split_type":[0,0,0,0,0,0,0,0,0,0,0,0,0,0,0,0,0,0,0,0,0,0,0,0,0,0,0,0,0,0,0,0,0,0,0,0,0,0,0,0,0,0,0,0,0,0,0,0,0,0,0,0,0,0,0],"sum_hessian":[4.899022E3,1.5627632E3,3.3362588E3,8.672649E1,1.4760367E3,1.167322E3,2.1689368E3,5.6071583E1,3.0654905E1,1.31721E3,1.5882677E2,8.004864E2,3.6683563E2,2.0810364E3,8.790038E1,1.5855773E1,1.4799131E1,1.3013857E3,1.5824217E1,2.3978514E1,1.3484827E2,7.4124426E2,5.9242134E1,1.1034548E2,2.5649014E2,2.0189233E3,6.2112957E1,1.6831527E0,1.4172621E1,1.4084973E1,1.7392437E0,6.139134E2,1.27330864E2,9.671506E1,1.3630426E1,3.5030514E1,2.2145963E2,2.913617E2,1.7275616E3,2.3751497E0,5.973781E1,9.398431E1,5.199291E2,1.1133668E2,1.5994191E1,9.174963E1,4.9654226E0,5.378272E0,2.965224E1,1.1007555E2,1.1138409E2,5.4009533E1,2.3735216E2,1.3897678E3,3.3779388E2],"tree_param":{"num_deleted":"0","num_feature":"22","num_nodes":"55","size_leaf_vector":"1"}},{"base_weights":[-1.7216487E-2,1.3261063E0,-6.4589745E-1,-6.9427854E-1,1.4341052E0,1.3430467E-1,-1.0559992E0,-7.529296E-2,6.469362E-2,-6.2018063E-2,1.4410145E0,-2.0260417E-1,1.3059404E0,-1.1117609E0,1.3728361E0,1.4836481E0,1.0610387E0,-3.9532936E-1,8.574072E-1,1.3367211E0,-6.27962E-2,-4.2837477E-1,-1.2250942E0,7.522123E-2,-5.784901E-2,7.439959E-2,1.0625883E0,-7.268202E-2,7.480382E-2,-8.1396973E-1,-1.4315649E-2,-7.746851E-2,1.0781238E0,9.3839025E-1,7.276754E-2,-8.141403E-2,-1.6788776E-1,-1.3992232E0,-5.661075E-1,7.074208E-2,-6.1318524E-2,2.4134664E-2,-5.592527E-2,8.2383435E-3,-8.88052E-2,-7.099039E-2,5.8623414E-2,6.687007E-2,-8.9560345E-2,1.8022843E-3,-8.532699E-2,-2.9039508E-2,-7.3562905E-2,-8.39319E-2,-1.7838247E-2],"categories":[],"categories_nodes":[],"categories_segments":[],"categories_sizes":[],"default_left":[0,0,0,0,0,0,0,0,0,0,0,0,0,0,0,0,0,0,0,0,0,0,0,0,0,0,0,0,0,0,0,0,0,0,0,0,0,0,0,0,0,0,0,0,0,0,0,0,0,0,0,0,0,0,0],"id":8,"left_children":[1,3,5,7,9,11,13,-1,-1,-1,15,17,19,21,23,25,27,29,31,33,-1,35,37,-1,-1,-1,39,-1,-1,41,43,-1,45,47,-1,-1,49,51,53,-1,-1,-1,-1,-1,-1,-1,-1,-1,-1,-1,-1,-1,-1,-1,-1],"loss_changes":[3.9736582E3,3.2830396E2,1.0256729E3,1.2585121E2,2.8105957E1,4.365167E2,2.860747E2,0E0,0E0,0E0,2.1446533E1,1.7586992E2,2.1152924E1,1.5858813E2,1.7586311E1,7.5097656E-1,1.6284581E2,1.1606529E2,7.205699E1,1.0188385E1,0E0,9.154843E1,2.0135034E2,0E0,0E0,0E0,1.5053841E1,0E0,0E0,1.3745312E2,1.2081536E2,0E0,3.0406586E1,6.6572395E1,0E0,0E0,7.615027E1,8.1255615E1,8.554443E1,0E0,0E0,0E0,0E0,0E0,0E0,0E0,0E0,0E0,0E0,0E0,0E0,0E0,0E0,0E0,0E0],"parents":[2147483647,0,0,1,1,2,2,3,3,4,4,5,5,6,6,10,10,11,11,12,12,13,13,14,14,15,15,16,16,17,17,18,18,19,19,21,21,22,22,26,26,29,29,30,30,32,32,33,33,36,36,37,37,38,38],"right_children":[2,4,6,8,10,12,14,-1,-1,-1,16,18,20,22,24,26,28,30,32,34,-1,36,38,-1,-1,-1,40,-1,-1,42,44,-1,46,48,-1,-1,50,52,54,-1,-1,-1,-1,-1,-1,-1,-1,-1,-1,-1,-1,-1,-1,-1,-1],"split_conditions":[2.563758E-1,1.25E-2,3E0,1.881668E2,4.99E0,1.881668E2,1E0,-7.529296E-2,6.469362E-2,-6.2018063E-2,8.9561954E-2,1E0,1.2E1,4.99E0,1E0,1.6E1,5.471976E0,2.106E1,6.2754354E0,1E1,-6.27962E-2,1.33E0,4.067E1,7.522123E-2,-5.784901E-2,7.439959E-2,1E0,-7.268202E-2,7.480382E-2,4.99E0,4E0,-7.746851E-2,1.0743921E1,2.7123254E2,7.276754E-2,-8.141403E-2,7.14584E1,9.256667E0,1.3765909E1,7.074208E-2,-6.1318524E-2,2.4134664E-2,-5.592527E-2,8.2383435E-3,-8.88052E-2,-7.099039E-2,5.8623414E-2,6.687007E-2,-8.9560345E-2,1.8022843E-3,-8.532699E-2,-2.9039508E-2,-7.3562905E-2,-8.39319E-2,-1.7838247E-2],"split_indices":[13,13,19,1,1,1,17,0,0,0,13,17,0,1,5,19,16,1,13,0,0,1,1,0,0,0,21,0,0,1,11,0,14,1,0,0,15,14,14,0,0,0,0,0,0,0,0,0,0,0,0,0,0,0,0],"split_type":[0,0,0,0,0,0,0,0,0,0,0,0,0,0,0,0,0,0,0,0,0,0,0,0,0,0,0,0,0,0,0,0,0,0,0,0,0,0,0,0,0,0,0,0,0,0,0,0,0,0,0,0,0,0,0],"sum_hessian":[4.7032046E3,1.4990427E3,3.204162E3,7.578921E1,1.4232534E3,1.1041788E3,2.0999832E3,5.3991848E1,2.1797361E1,3.2074397E0,1.420046E3,8.582208E2,2.45958E2,2.0533835E3,4.659975E1,1.2741776E3,1.4586836E2,7.2671985E2,1.3150096E2,2.4351045E2,2.44754E0,2.9277353E2,1.76061E3,4.468099E1,1.9187616E0,1.2586592E3,1.5518466E1,2.1168001E1,1.2470036E2,3.4572107E2,3.8099878E2,1.0540762E1,1.209602E2,5.7924347E1,1.855861E2,5.128477E1,2.4148877E2,1.3917374E3,3.6887253E2,1.3779752E1,1.7387141E0,6.564222E1,2.8007886E2,3.4666718E2,3.4331596E1,3.8909729E0,1.1706923E2,5.098188E1,6.942468E0,2.140898E2,2.739896E1,1.1331845E2,1.278419E3,5.730613E1,3.115664E2],"tree_param":{"num_deleted":"0","num_feature":"22","num_nodes":"55","size_leaf_vector":"1"}},{"base_weights":[7.206303E-3,1.3120625E0,-6.3868654E-1,-4.395708E-1,1.4106128E0,1.5982041E-1,-1.0670328E0,-7.302483E-2,1.353802E0,1.4544184E0,1.000438E0,-4.0313625E-1,7.4337226E-1,-1.201055E0,8.2726985E-2,1.008737E0,8.144017E-2,7.290317E-2,-5.385214E-2,-7.134015E-2,7.2111525E-2,-5.293951E-1,8.743789E-2,3.8646144E-1,1.2049708E0,-1.2625E0,1.2987889E0,-7.285427E-2,6.965697E-2,-7.3932636E-1,6.123201E-1,9.161911E-2,8.0457225E-2,-8.002416E-2,1.2635645E0,-6.692991E-1,-1.352667E0,-5.681197E-2,1.45148E0,-4.9609996E-2,1.2806134E-2,5.8284618E-2,-7.802152E-2,-1.226869E-2,6.263008E-2,-6.956714E-2,6.4473234E-2,-6.283653E-2,-7.3678856E-4,-7.2789006E-2,-4.3599933E-2,7.6960705E-2,-4.6734583E-2],"categories":[],"categories_nodes":[],"categories_segments":[],"categories_sizes":[],"default_left":[0,0,0,0,0,0,0,0,0,0,0,0,0,0,0,0,0,0,0,0,0,0,0,0,0,0,0,0,0,0,0,0,0,0,0,0,0,0,0,0,0,0,0,0,0,0,0,0,0,0,0,0,0],"id":9,"left_children":[1,3,5,7,9,11,13,-1,15,17,19,21,23,25,-1,27,-1,-1,-1,-1,-1,29,-1,31,33,35,37,-1,-1,39,41,43,-1,-1,45,47,49,-1,51,-1,-1,-1,-1,-1,-1,-1,-1,-1,-1,-1,-1,-1,-1],"loss_changes":[3.9474617E3,2.6832373E2,1.0717656E3,1.546113E2,2.4929688E1,3.599322E2,7.458069E2,0E0,1.2759781E0,1.3791504E1,1.5743433E2,1.5248926E2,8.814996E1,3.0026294E2,0E0,1.7451172E1,0E0,0E0,0E0,0E0,0E0,1.2693126E2,0E0,1.097363E2,4.0499268E1,1.0061279E2,1.9173317E1,0E0,0E0,1.1256975E2,1.01019066E2,9.680687E1,0E0,0E0,1.759851E1,9.7035866E1,8.034009E1,0E0,1.0815453E1,0E0,0E0,0E0,0E0,0E0,0E0,0E0,0E0,0E0,0E0,0E0,0E0,0E0,0E0],"parents":[2147483647,0,0,1,1,2,2,3,3,4,4,5,5,6,6,8,8,9,9,10,10,11,11,12,12,13,13,15,15,21,21,23,23,24,24,25,25,26,26,29,29,30,30,31,31,34,34,35,35,36,36,38,38],"right_children":[2,4,6,8,10,12,14,-1,16,18,20,22,24,26,-1,28,-1,-1,-1,-1,-1,30,-1,32,34,36,38,-1,-1,40,42,44,-1,-1,46,48,50,-1,52,-1,-1,-1,-1,-1,-1,-1,-1,-1,-1,-1,-1,-1,-1],"split_conditions":[2.563758E-1,1.25E-2,3E0,1.5422E2,8.9561954E-2,4.067E1,1E0,-7.302483E-2,4.637E1,1.6E1,5.8137155E0,1E0,1.5422E2,1E0,8.2726985E-2,3E0,8.144017E-2,7.290317E-2,-5.385214E-2,-7.134015E-2,7.2111525E-2,1E0,8.743789E-2,1E0,1E1,4.99E0,2E0,-7.285427E-2,6.965697E-2,3.4169586E1,3E0,1E0,8.0457225E-2,-8.002416E-2,2E0,1.5E1,4.566E1,-5.681197E-2,3E0,-4.9609996E-2,1.2806134E-2,5.8284618E-2,-7.802152E-2,-1.226869E-2,6.263008E-2,-6.956714E-2,6.4473234E-2,-6.283653E-2,-7.3678856E-4,-7.2789006E-2,-4.3599933E-2,7.6960705E-2,-4.6734583E-2],"split_indices":[13,13,19,1,13,1,20,0,14,19,16,20,1,17,0,11,0,0,0,0,0,17,0,20,21,1,7,0,0,13,7,17,0,0,6,6,1,0,7,0,0,0,0,0,0,0,0,0,0,0,0,0,0],"split_type":[0,0,0,0,0,0,0,0,0,0,0,0,0,0,0,0,0,0,0,0,0,0,0,0,0,0,0,0,0,0,0,0,0,0,0,0,0,0,0,0,0,0,0,0,0,0,0,0,0,0,0,0,0],"sum_hessian":[4.681767E3,1.5497911E3,3.1319758E3,8.236556E1,1.4674257E3,1.0937238E3,2.0382521E3,5.260459E1,2.9760971E1,1.3235303E3,1.4389531E2,5.568428E2,5.3688104E2,1.9431228E3,9.512926E1,1.5269404E1,1.4491566E1,1.3220508E3,1.4795175E0,2.1814611E1,1.220807E2,5.2669385E2,3.014891E1,3.0381027E2,2.3307076E2,1.8969906E3,4.6132164E1,1.6829945E0,1.358641E1,4.45188E2,8.150586E1,2.456486E2,5.8161682E1,4.229881E0,2.2884088E2,2.5140987E2,1.6455807E3,2.3419948E0,4.379017E1,3.5500858E2,9.017943E1,6.53305E1,1.617536E1,1.9099736E2,5.465125E1,1.7015605E0,2.2713931E2,1.3201466E2,1.1939521E2,1.3532524E3,2.9232837E2,4.257956E1,1.2106105E0],"tree_param":{"num_deleted":"0","num_feature":"22","num_nodes":"53","size_leaf_vector":"1"}},{"base_weights":[-5.253327E-3,1.2697601E0,-6.203723E-1,-4.508682E-1,1.3717186E0,-7.72207E-1,8.0814E-2,-7.129392E-2,1.315902E0,-6.0168304E-2,1.3782835E0,2.3579594E-1,-1.083805E0,9.8519665E-1,7.8769796E-2,1.4163064E0,9.810803E-1,-1.2460651E-1,1.1924658E0,-1.1354718E0,9.6311593E-1,6.798782E-2,-6.759324E-2,7.098797E-2,1.0663222E0,-6.918102E-2,7.044503E-2,-1.6072629E-2,-8.939677E-2,1.2268999E0,-5.872211E-2,-4.9829638E-1,-1.2365813E0,-7.447709E-2,1.1684526E0,7.031211E-2,-5.796464E-2,-1.5324883E-2,2.427294E-2,3.8364608E-2,6.7289904E-2,-4.926538E-2,1.0027117E-2,-6.492147E-2,-2.3936551E-2,-6.266143E-2,6.757622E-2],"categories":[],"categories_nodes":[],"categories_segments":[],"categories_sizes":[],"default_left":[0,0,0,0,0,0,0,0,0,0,0,0,0,0,0,0,0,0,0,0,0,0,0,0,0,0,0,0,0,0,0,0,0,0,0,0,0,0,0,0,0,0,0,0,0,0,0],"id":10,"left_children":[1,3,5,7,9,11,-1,-1,13,-1,15,17,19,21,-1,23,25,27,29,31,33,-1,-1,-1,35,-1,-1,37,-1,39,-1,41,43,-1,45,-1,-1,-1,-1,-1,-1,-1,-1,-1,-1,-1,-1],"loss_changes":[3.5674797E3,2.603147E2,1.0432751E3,1.4582538E2,2.5287354E1,9.029557E2,0E0,0E0,1.0426941E0,0E0,1.9673828E1,2.344173E2,2.332898E2,1.5812052E1,0E0,2.1728516E-2,1.2850604E2,8.923114E1,1.6602112E1,1.3737769E2,2.9235565E1,0E0,0E0,0E0,1.4060137E1,0E0,0E0,6.790299E1,0E0,9.013763E0,0E0,1.0060492E2,8.599365E1,0E0,2.4276588E1,0E0,0E0,0E0,0E0,0E0,0E0,0E0,0E0,0E0,0E0,0E0,0E0],"parents":[2147483647,0,0,1,1,2,2,3,3,4,4,5,5,8,8,10,10,11,11,12,12,13,13,15,15,16,16,17,17,18,18,19,19,20,20,24,24,27,27,29,29,31,31,32,32,34,34],"right_children":[2,4,6,8,10,12,-1,-1,14,-1,16,18,20,22,-1,24,26,28,30,32,34,-1,-1,-1,36,-1,-1,38,-1,40,-1,42,44,-1,46,-1,-1,-1,-1,-1,-1,-1,-1,-1,-1,-1,-1],"split_conditions":[2.563758E-1,1.25E-2,1E0,1.5422E2,4.99E0,2E0,8.0814E-2,-7.129392E-2,4.637E1,-6.0168304E-2,8.9561954E-2,1.7143E2,1.1E1,1.4E1,7.8769796E-2,1.6E1,5.8137155E0,7.989E1,1.2E1,4.99E0,9E0,6.798782E-2,-6.759324E-2,7.098797E-2,1E0,-6.918102E-2,7.044503E-2,1.7646186E0,-8.939677E-2,1E1,-5.872211E-2,3.88E0,9.777E1,-7.447709E-2,3.102E1,7.031211E-2,-5.796464E-2,-1.5324883E-2,2.427294E-2,3.8364608E-2,6.7289904E-2,-4.926538E-2,1.0027117E-2,-6.492147E-2,-2.3936551E-2,-6.266143E-2,6.757622E-2],"split_indices":[13,13,20,1,1,19,0,0,14,0,13,1,0,21,0,19,16,1,0,1,6,0,0,0,21,0,0,16,0,0,0,1,1,0,1,0,0,0,0,0,0,0,0,0,0,0,0],"split_type":[0,0,0,0,0,0,0,0,0,0,0,0,0,0,0,0,0,0,0,0,0,0,0,0,0,0,0,0,0,0,0,0,0,0,0,0,0,0,0,0,0,0,0,0,0,0,0],"sum_hessian":[4.546699E3,1.4793177E3,3.0673816E3,8.256408E1,1.3967537E3,2.873003E3,1.9437854E2,5.332763E1,2.923645E1,3.0881674E0,1.3936655E3,6.784608E2,2.1945422E3,1.4963369E1,1.4273082E1,1.2695684E3,1.2409714E2,4.9343918E2,1.8502164E2,2.1409473E3,5.35949E1,1.3256872E1,1.7064967E0,1.2541382E3,1.5430107E1,1.866968E1,1.0542746E2,4.641618E2,2.9277365E1,1.8284326E2,2.1783826E0,2.9401868E2,1.8469286E3,3.6571906E0,4.993771E1,1.3705075E1,1.725032E0,2.9419138E2,1.6997043E2,3.911094E1,1.4373232E2,1.7302794E2,1.2099074E2,1.7069141E3,1.400145E2,3.0989623E0,4.6838745E1],"tree_param":{"num_deleted":"0","num_feature":"22","num_nodes":"47","size_leaf_vector":"1"}},{"base_weights":[1.59034E-2,1.2508317E0,-5.516918E-1,-3.671688E-1,1.3413042E0,-1.0012037E0,7.148504E-2,-6.962234E-2,1.2737023E0,-6.076616E-2,1.3480897E0,-1.0577179E0,8.197772E-2,-2.3018867E-1,1.0170034E0,7.109334E-2,7.499562E-1,1.3833611E0,9.8289436E-1,-1.1290175E0,6.614441E-1,-4.7283864E-1,7.629662E-2,-1.4341082E-1,1.0828701E0,-6.165991E-2,6.1870705E-2,1.2797284E0,7.0044085E-2,-6.749648E-2,6.953216E-2,-3.4649673E-1,-1.3193237E0,1.1070437E0,-7.220224E-2,-7.002069E-1,1.2597789E0,-7.730418E-2,6.137079E-2,9.051826E-1,1.3804985E0,6.7106895E-2,-9.490733E-2,-5.5235285E-2,1.6372226E-3,-6.800662E-2,8.190828E-3,-6.632577E-2,6.54886E-2,3.6023688E-2,-4.115708E-2,6.9286935E-2,-7.2900295E-2,4.864233E-2,-7.4062385E-2,7.191073E-2,-7.464392E-2],"categories":[],"categories_nodes":[],"categories_segments":[],"categories_sizes":[],"default_left":[0,0,0,0,0,0,0,0,0,0,0,0,0,0,0,0,0,0,0,0,0,0,0,0,0,0,0,0,0,0,0,0,0,0,0,0,0,0,0,0,0,0,0,0,0,0,0,0,0,0,0,0,0,0,0,0,0],"id":11,"left_children":[1,3,5,7,9,11,13,-1,15,-1,17,19,-1,21,23,-1,25,27,29,31,33,35,-1,37,39,-1,-1,41,-1,-1,-1,43,45,47,-1,49,51,-1,-1,53,55,-1,-1,-1,-1,-1,-1,-1,-1,-1,-1,-1,-1,-1,-1,-1,-1],"loss_changes":[3.1494814E3,2.0760669E2,8.624036E2,1.2914346E2,2.4886963E1,2.6864282E2,3.684573E2,0E0,1.2334862E0,0E0,1.5863037E1,2.1544812E2,0E0,4.1810648E2,2.4035828E1,0E0,9.889328E0,4.169922E-1,1.1718167E2,2.5005371E2,6.7631256E1,3.4020337E2,0E0,3.58642E1,1.4392303E1,0E0,0E0,3.9742035E1,0E0,0E0,0E0,9.504974E1,8.209888E1,3.0674599E1,0E0,1.3368933E2,3.634874E1,0E0,0E0,3.1815979E1,2.016806E1,0E0,0E0,0E0,0E0,0E0,0E0,0E0,0E0,0E0,0E0,0E0,0E0,0E0,0E0,0E0,0E0],"parents":[2147483647,0,0,1,1,2,2,3,3,4,4,5,5,6,6,8,8,10,10,11,11,13,13,14,14,16,16,17,17,18,18,19,19,20,20,21,21,23,23,24,24,27,27,31,31,32,32,33,33,35,35,36,36,39,39,40,40],"right_children":[2,4,6,8,10,12,14,-1,16,-1,18,20,-1,22,24,-1,26,28,30,32,34,36,-1,38,40,-1,-1,42,-1,-1,-1,44,46,48,-1,50,52,-1,-1,54,56,-1,-1,-1,-1,-1,-1,-1,-1,-1,-1,-1,-1,-1,-1,-1,-1],"split_conditions":[2.563758E-1,1.25E-2,2.106E1,1.5422E2,4.99E0,1E0,1.881668E2,-6.962234E-2,2.4611052E1,-6.076616E-2,8.9561954E-2,1E0,8.197772E-2,1E0,1E1,7.109334E-2,4.637E1,1.533E1,5.8137155E0,4.99E0,1E0,1E0,7.629662E-2,2.3E1,4.9E1,-6.165991E-2,6.1870705E-2,5E-2,7.0044085E-2,-6.749648E-2,6.953216E-2,9.3247905E-2,2.7122318E2,1.2628049E1,-7.220224E-2,2.232E1,1E0,-7.730418E-2,6.137079E-2,2E1,2.7091616E1,6.7106895E-2,-9.490733E-2,-5.5235285E-2,1.6372226E-3,-6.800662E-2,8.190828E-3,-6.632577E-2,6.54886E-2,3.6023688E-2,-4.115708E-2,6.9286935E-2,-7.2900295E-2,4.864233E-2,-7.4062385E-2,7.191073E-2,-7.464392E-2],"split_indices":[13,13,1,1,1,20,1,0,15,0,13,17,0,20,21,0,14,1,16,1,9,17,0,6,21,0,0,13,0,0,0,16,15,14,0,1,9,0,0,6,13,0,0,0,0,0,0,0,0,0,0,0,0,0,0,0,0],"split_type":[0,0,0,0,0,0,0,0,0,0,0,0,0,0,0,0,0,0,0,0,0,0,0,0,0,0,0,0,0,0,0,0,0,0,0,0,0,0,0,0,0,0,0,0,0,0,0,0,0,0,0,0,0,0,0,0,0],"sum_hessian":[4.491245E3,1.4138655E3,3.0773796E3,7.470956E1,1.3391559E3,1.7874465E3,1.289933E3,4.6072887E1,2.8636673E1,3.0733137E0,1.3360826E3,1.7505822E3,3.686436E1,9.7849457E2,3.1143845E2,2.0985268E1,7.6514053E0,1.2158635E3,1.2021913E2,1.6812002E3,6.938188E1,8.603478E2,1.18146805E2,1.6664934E1,2.947735E2,1.2077968E0,6.4436083E0,1.865392E2,1.0293242E3,1.7542694E1,1.0267644E2,3.294314E2,1.3517688E3,5.76543E1,1.1727579E1,7.610698E2,9.927793E1,8.173602E0,8.491333E0,1.8710876E2,1.0766474E2,1.8351291E2,3.0262918E0,1.09199066E2,2.2023233E2,1.3156516E3,3.6117203E1,4.007289E0,5.364701E1,6.0225105E1,7.008447E2,9.534896E1,3.9289713E0,1.8252583E2,4.582932E0,1.0603435E2,1.6303909E0],"tree_param":{"num_deleted":"0","num_feature":"22","num_nodes":"57","size_leaf_vector":"1"}},{"base_weights":[-1.2636093E-2,1.2006524E0,-5.377099E-1,-8.536727E-1,1.3071504E0,1.9355364E-1,-9.4721174E-1,-6.8854496E-2,5.468684E-2,6.772223E-2,8.6041E-1,-1.3905083E-1,1.0321723E0,-1.0559884E0,7.5308636E-2,-6.693137E-2,6.7130715E-2,-3.0358237E-1,7.6483004E-2,1.268112E0,5.8232164E-1,-5.531638E-1,-1.1802503E0,-1.628579E-1,-1.2449795E0,-5.2517284E-2,1.2874578E0,-7.5246856E-2,7.654886E-1,-8.713995E-1,2.2947992E-1,-1.3243737E0,-6.211601E-1,-2.1147732E-2,1.8639388E-2,5.4393E-2,-7.667719E-2,2.5663579E-2,6.593888E-2,-2.196049E-2,5.1558923E-2,-5.9510536E-2,-2.1273175E-3,3.186216E-2,-7.6472335E-2,-7.237533E-2,-5.808572E-2,-4.90163E-2,1.4280788E-2],"categories":[],"categories_nodes":[],"categories_segments":[],"categories_sizes":[],"default_left":[0,0,0,0,0,0,0,0,0,0,0,0,0,0,0,0,0,0,0,0,0,0,0,0,0,0,0,0,0,0,0,0,0,0,0,0,0,0,0,0,0,0,0,0,0,0,0,0,0],"id":12,"left_children":[1,3,5,7,9,11,13,-1,-1,-1,15,17,19,21,-1,-1,-1,23,-1,25,27,29,31,33,35,-1,37,-1,39,41,43,45,47,-1,-1,-1,-1,-1,-1,-1,-1,-1,-1,-1,-1,-1,-1,-1,-1],"loss_changes":[2.779381E3,2.8942285E2,9.1201556E2,6.832497E1,2.5313232E1,3.0526096E2,5.225475E2,0E0,0E0,0E0,1.3192194E2,2.1575143E2,3.224518E1,1.1617578E2,0E0,0E0,0E0,9.446428E1,0E0,1.0457245E1,4.2734356E1,9.29513E1,1.19916016E2,8.692745E1,6.4124115E1,0E0,4.215454E0,0E0,3.2669315E1,6.996327E1,7.8752075E1,2.2161133E1,1.009099E2,0E0,0E0,0E0,0E0,0E0,0E0,0E0,0E0,0E0,0E0,0E0,0E0,0E0,0E0,0E0,0E0],"parents":[2147483647,0,0,1,1,2,2,3,3,4,4,5,5,6,6,10,10,11,11,12,12,13,13,17,17,19,19,20,20,21,21,22,22,23,23,24,24,26,26,28,28,29,29,30,30,31,31,32,32],"right_children":[2,4,6,8,10,12,14,-1,-1,-1,16,18,20,22,-1,-1,-1,24,-1,26,28,30,32,34,36,-1,38,-1,40,42,44,46,48,-1,-1,-1,-1,-1,-1,-1,-1,-1,-1,-1,-1,-1,-1,-1,-1],"split_conditions":[2.563758E-1,1.25E-2,3E0,1.2668822E1,8.9561954E-2,1.1E1,1E0,-6.8854496E-2,5.468684E-2,6.772223E-2,5.8137155E0,1E0,1.2E1,1.6717024E-1,7.5308636E-2,-6.693137E-2,6.7130715E-2,1E1,7.6483004E-2,2.1081564E0,2E0,6E0,5E1,4.6E1,3.5325702E-2,-5.2517284E-2,2.6E1,-7.5246856E-2,8.904565E0,4E0,1.7E1,1.4E1,1.9079734E0,-2.1147732E-2,1.8639388E-2,5.4393E-2,-7.667719E-2,2.5663579E-2,6.593888E-2,-2.196049E-2,5.1558923E-2,-5.9510536E-2,-2.1273175E-3,3.186216E-2,-7.6472335E-2,-7.237533E-2,-5.808572E-2,-4.90163E-2,1.4280788E-2],"split_indices":[13,13,19,16,13,0,20,0,0,0,16,20,0,16,0,0,0,0,0,16,2,7,21,21,16,0,4,0,15,11,6,6,16,0,0,0,0,0,0,0,0,0,0,0,0,0,0,0,0],"split_type":[0,0,0,0,0,0,0,0,0,0,0,0,0,0,0,0,0,0,0,0,0,0,0,0,0,0,0,0,0,0,0,0,0,0,0,0,0,0,0,0,0,0,0,0,0,0,0,0,0],"sum_hessian":[4.36077E3,1.3167858E3,3.0439844E3,6.455312E1,1.2522327E3,1.0928918E3,1.9510925E3,5.110908E1,1.344404E1,1.1305182E3,1.2171453E2,7.831292E2,3.0976263E2,1.8688042E3,8.2288345E1,2.1570177E1,1.00144356E2,7.1358887E2,6.954036E1,2.0199855E2,1.0776407E2,3.713978E2,1.4974065E3,6.2181067E2,9.177818E1,1.2305745E0,2.0076797E2,8.111716E0,9.965235E1,2.639557E2,1.0744209E2,1.1894253E3,3.0798114E2,4.1870697E2,2.0310371E2,9.798032E0,8.1980156E1,8.482377E0,1.922856E2,1.7888536E1,8.176382E1,1.9031624E2,7.363946E1,8.773957E1,1.9702522E1,6.7246844E2,5.1695685E2,2.2054436E2,8.743679E1],"tree_param":{"num_deleted":"0","num_feature":"22","num_nodes":"49","size_leaf_vector":"1"}},{"base_weights":[2.9524582E-2,-6.1673397E-1,6.240448E-1,1.0881279E-1,-9.417617E-1,8.6350054E-1,1.495748E-1,-1.421983E-1,8.6177516E-1,-4.4416085E-2,-1.0457276E0,7.167246E-1,1.2241224E0,-1.5377013E-1,6.997663E-1,4.0319586E-1,-9.515694E-1,-3.9960676E-1,1.2074922E0,8.8646847E-1,-5.190858E-1,-5.201218E-1,-1.193245E0,-1.8372862E-1,8.415841E-1,9.539709E-1,1.3055723E0,1.562363E-1,-7.4822354E-1,2.5232118E-1,1.067091E0,6.498641E-1,-7.3552065E-2,-1.0409365E0,6.6140555E-2,-7.301412E-2,9.9249405E-1,1.3099384E0,-6.462144E-2,-5.849094E-2,1.1371536E0,-7.627655E-1,1.10257186E-1,2.4148445E-1,-8.940933E-1,-5.379717E-1,-1.2982601E0,-8.778265E-1,9.223112E-1,9.0244466E-1,-3.7218907E-1,1.058899E0,-8.5935555E-2,1.4807408E0,1.243079E0,-2.1056554E-1,8.141686E-1,-1.0807521E0,3.558843E-1,-8.101477E-1,1.022168E0,1.1372398E0,-6.454041E-2,-1.8285723E-2,4.4762906E-2,-3.478655E-2,-7.405125E-2,-5.0335687E-2,6.5758534E-2,6.852033E-2,-5.3563233E-2,6.1535574E-2,-4.385532E-2,-4.778826E-2,6.913942E-2,4.5769993E-2,-7.597806E-2,-6.1155885E-2,1.823171E-2,-5.93038E-2,6.1453808E-2,-6.604683E-2,4.8963096E-2,-7.8192525E-2,-1.6689667E-3,-7.201167E-2,6.16281E-2,1.8418454E-2,4.877025E-2,5.871287E-2,-5.0144553E-2,5.6645893E-3,6.354693E-2,7.7610336E-2,3.3203926E-2,3.6187664E-2,6.2765546E-2,-2.4962269E-2,4.6444688E-2,5.4489303E-2,-6.9755875E-2,-4.422374E-3,-6.574731E-2,8.455678E-2,-2.921526E-2,-5.8443148E-2,6.731989E-2,6.3660346E-2,1.4776513E-2,1.2845826E-2,6.337746E-2],"categories":[],"categories_nodes":[],"categories_segments":[],"categories_sizes":[],"default_left":[0,0,0,0,0,0,0,0,0,0,0,0,0,0,0,0,0,0,0,0,0,0,0,0,0,0,0,0,0,0,0,0,0,0,0,0,0,0,0,0,0,0,0,0,0,0,0,0,0,0,0,0,0,0,0,0,0,0,0,0,0,0,0,0,0,0,0,0,0,0,0,0,0,0,0,0,0,0,0,0,0,0,0,0,0,0,0,0,0,0,0,0,0,0,0,0,0,0,0,0,0,0,0,0,0,0,0,0,0,0,0],"id":13,"left_children":[1,3,5,7,9,11,13,15,17,19,21,23,25,27,29,31,33,35,37,39,41,43,45,47,49,51,53,55,57,59,61,63,-1,65,-1,-1,67,69,-1,-1,71,73,-1,75,77,79,81,83,85,87,89,91,-1,93,95,97,99,101,103,105,107,109,-1,-1,-1,-1,-1,-1,-1,-1,-1,-1,-1,-1,-1,-1,-1,-1,-1,-1,-1,-1,-1,-1,-1,-1,-1,-1,-1,-1,-1,-1,-1,-1,-1,-1,-1,-1,-1,-1,-1,-1,-1,-1,-1,-1,-1,-1,-1,-1,-1],"loss_changes":[1.6812491E3,4.9455194E2,2.5881158E2,1.2289348E2,1.3505396E2,7.928479E1,1.278914E2,2.1581216E2,7.1366196E1,6.735939E1,9.999951E1,1.2144336E2,8.363159E0,9.121858E1,4.448323E1,1.3607338E2,4.1370483E1,5.418969E1,3.4430893E1,2.7877285E1,6.866554E1,8.1723434E1,6.897876E1,1.02294106E2,7.0336E1,3.12303E1,1.8025513E0,7.878247E1,6.265799E1,1.0230613E2,2.614981E1,6.486592E1,0E0,2.781726E1,0E0,0E0,1.1672208E1,1.9220657E1,0E0,0E0,9.825497E0,3.998182E1,0E0,1.1417296E2,8.002219E1,1.6358385E2,4.6327637E1,4.7297356E1,3.949339E1,3.4813416E1,4.599824E1,2.0213303E1,0E0,3.771469E0,6.8927E-1,6.951996E1,7.264409E1,3.023462E1,5.1218407E1,4.2329338E1,1.2827171E1,1.6358643E1,0E0,0E0,0E0,0E0,0E0,0E0,0E0,0E0,0E0,0E0,0E0,0E0,0E0,0E0,0E0,0E0,0E0,0E0,0E0,0E0,0E0,0E0,0E0,0E0,0E0,0E0,0E0,0E0,0E0,0E0,0E0,0E0,0E0,0E0,0E0,0E0,0E0,0E0,0E0,0E0,0E0,0E0,0E0,0E0,0E0,0E0,0E0,0E0,0E0],"parents":[2147483647,0,0,1,1,2,2,3,3,4,4,5,5,6,6,7,7,8,8,9,9,10,10,11,11,12,12,13,13,14,14,15,15,16,16,17,17,18,18,19,19,20,20,21,21,22,22,23,23,24,24,25,25,26,26,27,27,28,28,29,29,30,30,31,31,33,33,36,36,37,37,40,40,41,41,43,43,44,44,45,45,46,46,47,47,48,48,49,49,50,50,51,51,53,53,54,54,55,55,56,56,57,57,58,58,59,59,60,60,61,61],"right_children":[2,4,6,8,10,12,14,16,18,20,22,24,26,28,30,32,34,36,38,40,42,44,46,48,50,52,54,56,58,60,62,64,-1,66,-1,-1,68,70,-1,-1,72,74,-1,76,78,80,82,84,86,88,90,92,-1,94,96,98,100,102,104,106,108,110,-1,-1,-1,-1,-1,-1,-1,-1,-1,-1,-1,-1,-1,-1,-1,-1,-1,-1,-1,-1,-1,-1,-1,-1,-1,-1,-1,-1,-1,-1,-1,-1,-1,-1,-1,-1,-1,-1,-1,-1,-1,-1,-1,-1,-1,-1,-1,-1,-1],"split_conditions":[2.143E1,3E0,4E0,5.406421E1,1E0,1.881668E2,9.376E1,1.5207273E1,1.7E1,1.0647766E1,5.11E0,1E0,1.061887E1,3E0,5E0,1.7E1,1E0,5.8E1,9.4845764E1,7E0,1.1645825E3,6E0,1.0647766E1,4E1,2.1E1,7.8101783E0,1E0,1.9E1,5.7644016E1,4E1,1.8E1,2E0,-7.3552065E-2,4E0,6.6140555E-2,-7.301412E-2,1.061E1,4E0,-6.462144E-2,-5.849094E-2,1.1E1,1E0,1.10257186E-1,4E0,4.84E0,5.6E1,1E0,1.7E1,1.2E1,2E0,7.825778E0,8E0,-8.5935555E-2,2.7123254E2,8E0,7E0,5E0,1E0,6.165865E1,1E0,1E0,1.061887E1,-6.454041E-2,-1.8285723E-2,4.4762906E-2,-3.478655E-2,-7.405125E-2,-5.0335687E-2,6.5758534E-2,6.852033E-2,-5.3563233E-2,6.1535574E-2,-4.385532E-2,-4.778826E-2,6.913942E-2,4.5769993E-2,-7.597806E-2,-6.1155885E-2,1.823171E-2,-5.93038E-2,6.1453808E-2,-6.604683E-2,4.8963096E-2,-7.8192525E-2,-1.6689667E-3,-7.201167E-2,6.16281E-2,1.8418454E-2,4.877025E-2,5.871287E-2,-5.0144553E-2,5.6645893E-3,6.354693E-2,7.7610336E-2,3.3203926E-2,3.6187664E-2,6.2765546E-2,-2.4962269E-2,4.6444688E-2,5.4489303E-2,-6.9755875E-2,-4.422374E-3,-6.574731E-2,8.455678E-2,-2.921526E-2,-5.8443148E-2,6.731989E-2,6.3660346E-2,1.4776513E-2,1.2845826E-2,6.337746E-2],"split_indices":[1,19,19,14,0,1,1,14,6,14,1,0,15,11,7,6,20,21,14,19,14,19,14,21,6,15,0,6,14,21,19,7,0,2,0,0,1,7,0,0,19,20,0,2,1,21,17,6,6,7,14,0,0,1,21,2,2,21,14,17,7,15,0,0,0,0,0,0,0,0,0,0,0,0,0,0,0,0,0,0,0,0,0,0,0,0,0,0,0,0,0,0,0,0,0,0,0,0,0,0,0,0,0,0,0,0,0,0,0,0,0],"split_type":[0,0,0,0,0,0,0,0,0,0,0,0,0,0,0,0,0,0,0,0,0,0,0,0,0,0,0,0,0,0,0,0,0,0,0,0,0,0,0,0,0,0,0,0,0,0,0,0,0,0,0,0,0,0,0,0,0,0,0,0,0,0,0,0,0,0,0,0,0,0,0,0,0,0,0,0,0,0,0,0,0,0,0,0,0,0,0,0,0,0,0,0,0,0,0,0,0,0,0,0,0,0,0,0,0,0,0,0,0,0,0],"sum_hessian":[4.373815E3,2.0956992E3,2.2781157E3,6.485752E2,1.4471241E3,1.5134747E3,7.6464105E2,4.870283E2,1.615469E2,1.5040276E2,1.2967214E3,1.0777922E3,4.356824E2,4.933538E2,2.7128726E2,2.9126285E2,1.9576544E2,3.471823E1,1.2682867E2,5.0499535E1,9.990322E1,2.8517307E2,1.01154834E3,1.311929E2,9.4659937E2,1.0387238E2,3.3181003E2,3.2473975E2,1.6861404E2,1.2306561E2,1.4822165E2,2.5796533E2,3.3297527E1,1.8888588E2,6.879562E0,1.9676924E1,1.50413065E1,1.2229313E2,4.5355387E0,5.089073E0,4.541046E1,9.236157E1,7.541646E0,9.4030624E1,1.9114244E2,1.4056622E2,8.709821E2,8.073426E1,5.045864E1,9.016459E2,4.495349E1,1.0052946E2,3.3429286E0,8.128217E1,2.5052785E2,2.0893626E2,1.1580347E2,1.2960234E2,3.901171E1,5.1683983E1,7.138163E1,1.444421E2,3.7795455E0,5.0106422E1,2.078589E2,1.0730035E2,8.1585526E1,1.7957144E0,1.3245592E1,1.1967851E2,2.614621E0,4.3766605E1,1.6438577E0,8.524779E1,7.113783E0,6.83534E1,2.5677221E1,1.5155507E2,3.9587368E1,1.0308592E2,3.748029E1,8.6281146E2,8.170632E0,4.407559E1,3.6658672E1,5.434327E0,4.502431E1,1.09096825E2,7.925491E2,1.2772992E1,3.21805E1,1.869444E1,8.1835014E1,7.3913376E1,7.3688006E0,7.1496263E0,2.4337822E2,1.6715079E2,4.1785477E1,1.0340944E2,1.2394027E1,2.501001E1,1.0459233E2,1.5789228E1,2.3222483E1,4.470572E1,6.9782624E0,5.2493862E1,1.888777E1,1.9007284E1,1.25434814E2],"tree_param":{"num_deleted":"0","num_feature":"22","num_nodes":"111","size_leaf_vector":"1"}},{"base_weights":[5.937081E-2,1.1876384E0,-4.6478945E-1,-3.7073067E-1,1.2747341E0,2.279726E-1,-8.7171364E-1,-6.638921E-2,1.1914399E0,6.587245E-2,9.1048557E-1,-3.8447697E-2,1.1147065E0,-9.6532285E-1,7.204236E-2,8.046248E-1,7.484356E-2,-6.481131E-2,1.3089201E0,-1.9998798E-1,7.4025385E-2,1.1299778E0,-5.5943456E-2,-2.517194E-1,-1.0942758E0,-7.089218E-2,6.2483706E-2,3.914687E-2,6.680297E-2,-1.0940106E0,4.397223E-2,8.433111E-1,1.22424E0,-7.54868E-2,9.791895E-2,-1.26059E0,-5.068636E-1,-7.9009436E-2,-6.1519523E-3,-1.0995527E-2,2.1276163E-2,-8.771287E-2,5.85909E-2,5.1308054E-2,6.898466E-2,4.838281E-2,-1.9099517E-2,-2.6488645E-2,-6.524694E-2,4.3376766E-2,-3.6141377E-2],"categories":[],"categories_nodes":[],"categories_segments":[],"categories_sizes":[],"default_left":[0,0,0,0,0,0,0,0,0,0,0,0,0,0,0,0,0,0,0,0,0,0,0,0,0,0,0,0,0,0,0,0,0,0,0,0,0,0,0,0,0,0,0,0,0,0,0,0,0,0,0],"id":14,"left_children":[1,3,5,7,9,11,13,-1,15,-1,17,19,21,23,-1,25,-1,-1,27,29,-1,31,-1,33,35,-1,-1,-1,-1,37,39,41,43,-1,45,47,49,-1,-1,-1,-1,-1,-1,-1,-1,-1,-1,-1,-1,-1,-1],"loss_changes":[2.5781636E3,1.881615E2,8.3933655E2,1.1217229E2,1.9180664E1,2.6045032E2,4.0737634E2,0E0,2.1778564E0,0E0,1.2542243E2,2.0851476E2,9.952026E0,1.6564453E2,0E0,1.6404257E1,0E0,0E0,6.6256714E-1,1.6752986E2,0E0,5.8167725E0,0E0,1.2209929E2,1.4852197E2,0E0,0E0,0E0,0E0,7.753531E1,6.0930595E1,5.8319664E1,4.3894653E0,0E0,9.131867E1,3.7852905E1,1.01121826E2,0E0,0E0,0E0,0E0,0E0,0E0,0E0,0E0,0E0,0E0,0E0,0E0,0E0,0E0],"parents":[2147483647,0,0,1,1,2,2,3,3,4,4,5,5,6,6,8,8,10,10,11,11,12,12,13,13,15,15,18,18,19,19,21,21,23,23,24,24,29,29,30,30,31,31,32,32,34,34,35,35,36,36],"right_children":[2,4,6,8,10,12,14,-1,16,-1,18,20,22,24,-1,26,-1,-1,28,30,-1,32,-1,34,36,-1,-1,-1,-1,38,40,42,44,-1,46,48,50,-1,-1,-1,-1,-1,-1,-1,-1,-1,-1,-1,-1,-1,-1],"split_conditions":[2.563758E-1,1.25E-2,3E0,1.5422E2,8.9561954E-2,1.5422E2,1E0,-6.638921E-2,4.637E1,6.587245E-2,5.8137155E0,1E0,2E0,4.99E0,7.204236E-2,4E0,7.484356E-2,-6.481131E-2,1.881668E2,6.2754354E0,7.4025385E-2,9.968689E0,-5.5943456E-2,7.127199E-2,4.067E1,-7.089218E-2,6.2483706E-2,3.914687E-2,6.680297E-2,4.7E1,1.6950673E0,2.3483E2,1.061887E1,-7.54868E-2,2.8E1,8.877143E0,7.8571427E-1,-7.9009436E-2,-6.1519523E-3,-1.0995527E-2,2.1276163E-2,-8.771287E-2,5.85909E-2,5.1308054E-2,6.898466E-2,4.838281E-2,-1.9099517E-2,-2.6488645E-2,-6.524694E-2,4.3376766E-2,-3.6141377E-2],"split_indices":[13,13,19,1,13,1,20,0,14,0,16,20,12,1,0,11,0,0,1,13,0,16,0,16,1,0,0,0,0,21,16,1,15,0,4,14,16,0,0,0,0,0,0,0,0,0,0,0,0,0,0],"split_type":[0,0,0,0,0,0,0,0,0,0,0,0,0,0,0,0,0,0,0,0,0,0,0,0,0,0,0,0,0,0,0,0,0,0,0,0,0,0,0,0,0,0,0,0,0,0,0,0,0,0,0],"sum_hessian":[4.357542E3,1.3818375E3,2.9757043E3,7.296946E1,1.3088682E3,1.1012823E3,1.874422E3,4.5341393E1,2.7628065E1,1.1691476E3,1.3972054E2,8.47582E2,2.5370042E2,1.8020598E3,7.236226E1,1.3793545E1,1.3834519E1,2.1024424E1,1.18696106E2,7.668917E2,8.069028E1,2.5246835E2,1.2320712E0,2.7625638E2,1.5258033E3,1.9366373E0,1.1856908E1,7.2884336E0,1.1140767E2,1.6365889E2,6.032328E2,6.4935455E1,1.8753288E2,5.935958E1,2.168968E2,1.1882328E3,3.3757062E2,1.08636E2,5.5022892E1,3.5685416E2,2.4637865E2,6.802968E0,5.813249E1,8.580327E1,1.0172962E2,7.67631E1,1.4013371E2,6.872192E1,1.1195109E3,4.5430836E1,2.9213977E2],"tree_param":{"num_deleted":"0","num_feature":"22","num_nodes":"51","size_leaf_vector":"1"}},{"base_weights":[-1.2490559E-2,1.1488819E0,-5.076529E-1,-3.5240832E-1,1.2420356E0,-8.2124776E-1,1.989326E-1,-6.521063E-2,1.2730285E0,1.2861742E0,8.477003E-1,-8.8780266E-1,7.458454E-2,-6.15341E-2,8.4092146E-1,4.9056653E-2,7.279054E-2,1.1599029E0,6.554228E-2,-6.349691E-2,1.2772572E0,-1.6879158E-1,-1.0423768E0,-2.8228518E-1,6.953276E-2,1.0205314E0,-1.4855029E-3,1.2341163E0,-9.694451E-2,3.7958294E-2,6.547825E-2,-6.669611E-1,4.7799903E-1,-5.46595E-1,-1.233279E0,-6.636814E-1,1.2048619E-1,7.378355E-1,1.1915032E0,-7.310357E-2,8.341694E-1,-8.075633E-2,6.307059E-2,-4.36051E-2,4.364377E-2,-7.6550364E-2,3.5619523E-2,-3.571485E-2,3.4103986E-2,5.753249E-2,-6.287854E-2,-6.833479E-2,-1.5399501E-2,-8.260702E-2,2.4286412E-2,5.2018214E-2,-3.3939876E-2,5.692106E-2,8.890842E-2,6.8996124E-2,-6.812351E-2],"categories":[],"categories_nodes":[],"categories_segments":[],"categories_sizes":[],"default_left":[0,0,0,0,0,0,0,0,0,0,0,0,0,0,0,0,0,0,0,0,0,0,0,0,0,0,0,0,0,0,0,0,0,0,0,0,0,0,0,0,0,0,0,0,0,0,0,0,0,0,0,0,0,0,0,0,0,0,0,0,0],"id":15,"left_children":[1,3,5,7,9,11,13,-1,15,17,19,21,-1,23,25,-1,-1,27,-1,-1,29,31,33,35,-1,37,39,41,-1,-1,-1,43,45,47,49,51,53,55,57,-1,59,-1,-1,-1,-1,-1,-1,-1,-1,-1,-1,-1,-1,-1,-1,-1,-1,-1,-1,-1,-1],"loss_changes":[2.3384756E3,1.7042908E2,6.318705E2,1.1273332E2,1.8834229E1,3.053125E2,1.4672552E2,0E0,1.329422E-2,1.6806641E0,1.09111404E2,2.1322998E2,0E0,2.0072377E2,3.8316498E1,0E0,0E0,4.3014587E1,0E0,0E0,6.585083E-1,1.1017607E2,1.4888501E2,8.3537445E1,0E0,9.209381E0,5.675624E1,1.55008545E1,0E0,0E0,0E0,6.173297E1,7.122001E1,9.137642E1,6.746973E1,6.939535E1,1.7242911E2,3.55445E1,1.9754944E0,0E0,3.734028E1,0E0,0E0,0E0,0E0,0E0,0E0,0E0,0E0,0E0,0E0,0E0,0E0,0E0,0E0,0E0,0E0,0E0,0E0,0E0,0E0],"parents":[2147483647,0,0,1,1,2,2,3,3,4,4,5,5,6,6,8,8,9,9,10,10,11,11,13,13,14,14,17,17,20,20,21,21,22,22,23,23,25,25,26,26,27,27,31,31,32,32,33,33,34,34,35,35,36,36,37,37,38,38,40,40],"right_children":[2,4,6,8,10,12,14,-1,16,18,20,22,-1,24,26,-1,-1,28,-1,-1,30,32,34,36,-1,38,40,42,-1,-1,-1,44,46,48,50,52,54,56,58,-1,60,-1,-1,-1,-1,-1,-1,-1,-1,-1,-1,-1,-1,-1,-1,-1,-1,-1,-1,-1,-1],"split_conditions":[2.563758E-1,1.25E-2,4.067E1,1.5422E2,8.9561954E-2,1E0,1.881668E2,-6.521063E-2,4.1691113E1,1.533E1,5.8137155E0,4.99E0,7.458454E-2,1E0,4E0,4.9056653E-2,7.279054E-2,5E-2,6.554228E-2,-6.349691E-2,1.881668E2,3.88E0,3E0,3.4E1,6.953276E-2,3.4E1,3.4E1,4E0,-9.694451E-2,3.7958294E-2,6.547825E-2,4.9008575E1,5.2692804E0,1.3625659E2,9.8774815E-3,3E0,6.560353E0,2E1,3E0,-7.310357E-2,2E0,-8.075633E-2,6.307059E-2,-4.36051E-2,4.364377E-2,-7.6550364E-2,3.5619523E-2,-3.571485E-2,3.4103986E-2,5.753249E-2,-6.287854E-2,-6.833479E-2,-1.5399501E-2,-8.260702E-2,2.4286412E-2,5.2018214E-2,-3.3939876E-2,5.692106E-2,8.890842E-2,6.8996124E-2,-6.812351E-2],"split_indices":[13,13,1,1,13,20,1,0,14,1,16,1,0,20,19,0,0,13,0,0,1,1,19,21,0,21,21,6,0,0,0,13,15,15,16,2,13,21,19,0,2,0,0,0,0,0,0,0,0,0,0,0,0,0,0,0,0,0,0,0,0],"split_type":[0,0,0,0,0,0,0,0,0,0,0,0,0,0,0,0,0,0,0,0,0,0,0,0,0,0,0,0,0,0,0,0,0,0,0,0,0,0,0,0,0,0,0,0,0,0,0,0,0,0,0,0,0,0,0,0,0,0,0,0,0],"sum_hessian":[4.06442E3,1.2145195E3,2.8499004E3,7.079445E1,1.1437251E3,1.9737524E3,8.761479E2,4.4773895E1,2.6020552E1,1.026559E3,1.1716611E2,1.9191451E3,5.4607315E1,6.239173E2,2.5223059E2,1.2471642E1,1.354891E1,1.756379E2,8.509211E2,1.9428871E1,9.7737236E1,3.3994785E2,1.5791973E3,5.4228827E2,8.162904E1,2.0772913E2,4.4501465E1,1.7211757E2,3.5203245E0,7.175047E0,9.0562195E1,1.920197E2,1.4792813E2,4.4010022E2,1.139097E3,2.7820236E2,2.6408588E2,8.028922E1,1.274399E2,1.5922307E1,2.8579159E1,1.081222E0,1.7103635E2,1.6982837E2,2.2191332E1,1.487764E1,1.3305049E2,3.8761343E2,5.2486774E1,1.1022368E1,1.1280747E3,9.2512184E1,1.8569017E2,4.4515537E1,2.1957034E2,6.637923E1,1.3909994E1,1.1956229E2,7.8776116E0,2.318954E1,5.389618E0],"tree_param":{"num_deleted":"0","num_feature":"22","num_nodes":"61","size_leaf_vector":"1"}},{"base_weights":[1.8002668E-2,1.1525409E0,-5.054499E-1,-4.4982156E-1,1.2313366E0,-7.9552907E-1,3.4659553E-1,-9.685363E-1,8.1458104E-1,1.2710251E0,8.521195E-1,-8.923502E-1,6.967067E-2,9.01498E-2,9.0671235E-1,-6.5315306E-2,5.597653E-2,1.1747824E0,-4.836936E-2,6.460923E-2,1.1766163E0,-6.464367E-2,1.1845782E0,-9.376745E-1,8.6541206E-1,-2.510447E-2,7.020185E-2,1.1513606E0,4.2649043E-1,-3.295688E-2,6.755655E-2,1.2204821E0,-9.1935806E-2,6.26409E-2,8.4109646E-1,-5.8450633E-1,-1.0817014E0,-1.9929071E-1,1.2334851E0,-6.939282E-1,3.598763E-1,1.2346518E0,9.425324E-1,7.5118303E-1,-7.895666E-2,6.4232886E-2,5.2088898E-2,-5.0159972E-2,5.617569E-2,-6.9070786E-2,-1.8776273E-2,-2.4732834E-2,-6.127999E-2,-7.8492895E-2,6.114904E-2,6.600649E-2,-4.1299593E-2,-4.733835E-2,4.5681473E-2,2.558355E-2,-7.211781E-2,3.5513245E-2,6.324275E-2,5.319023E-2,-7.190575E-2,-1.9697396E-2,5.793516E-2],"categories":[],"categories_nodes":[],"categories_segments":[],"categories_sizes":[],"default_left":[0,0,0,0,0,0,0,0,0,0,0,0,0,0,0,0,0,0,0,0,0,0,0,0,0,0,0,0,0,0,0,0,0,0,0,0,0,0,0,0,0,0,0,0,0,0,0,0,0,0,0,0,0,0,0,0,0,0,0,0,0,0,0,0,0,0,0],"id":16,"left_children":[1,3,5,7,9,11,13,15,17,19,21,23,-1,25,27,-1,-1,29,-1,-1,31,-1,33,35,37,39,-1,41,43,-1,-1,45,-1,-1,47,49,51,53,55,57,59,61,63,65,-1,-1,-1,-1,-1,-1,-1,-1,-1,-1,-1,-1,-1,-1,-1,-1,-1,-1,-1,-1,-1,-1,-1],"loss_changes":[2.4165195E3,1.627539E2,6.8847455E2,4.0760063E1,1.7349487E1,4.415464E2,1.0159914E2,3.2263794E1,1.2864695E1,6.903076E-1,8.6441055E1,1.593645E2,0E0,7.373422E1,2.5614914E1,0E0,0E0,5.9523315E0,0E0,0E0,3.0523163E1,0E0,1.3748016E0,9.8077515E1,2.0054314E1,1.1570996E2,0E0,1.3865662E0,5.1058727E1,0E0,0E0,1.0852966E0,0E0,0E0,1.1656669E1,9.346312E1,1.1573804E2,2.8910149E1,7.817749E0,6.7588E1,7.877571E1,7.1058655E-1,1.4819706E1,3.1532135E1,0E0,0E0,0E0,0E0,0E0,0E0,0E0,0E0,0E0,0E0,0E0,0E0,0E0,0E0,0E0,0E0,0E0,0E0,0E0,0E0,0E0,0E0,0E0],"parents":[2147483647,0,0,1,1,2,2,3,3,4,4,5,5,6,6,7,7,8,8,9,9,10,10,11,11,13,13,14,14,17,17,20,20,22,22,23,23,24,24,25,25,27,27,28,28,31,31,34,34,35,35,36,36,37,37,38,38,39,39,40,40,41,41,42,42,43,43],"right_children":[2,4,6,8,10,12,14,16,18,20,22,24,-1,26,28,-1,-1,30,-1,-1,32,-1,34,36,38,40,-1,42,44,-1,-1,46,-1,-1,48,50,52,54,56,58,60,62,64,66,-1,-1,-1,-1,-1,-1,-1,-1,-1,-1,-1,-1,-1,-1,-1,-1,-1,-1,-1,-1,-1,-1,-1],"split_conditions":[2.563758E-1,1.25E-2,1E0,4.754933E1,8.9561954E-2,1E0,1.1E1,7E0,7.042376E1,6E0,2.170217E-1,1.1E1,6.967067E-2,1E0,1.2E1,-6.5315306E-2,5.597653E-2,4E0,-4.836936E-2,6.460923E-2,8E0,-6.464367E-2,6E0,3.4E1,2.7499256E1,2.9E1,7.020185E-2,4E0,2.8127777E1,-3.295688E-2,6.755655E-2,1E0,-9.1935806E-2,6.26409E-2,3.297988E1,2E0,3E0,2.2E1,5E0,4.784987E1,1E1,5E0,5.2E1,8.904565E0,-7.895666E-2,6.4232886E-2,5.2088898E-2,-5.0159972E-2,5.617569E-2,-6.9070786E-2,-1.8776273E-2,-2.4732834E-2,-6.127999E-2,-7.8492895E-2,6.114904E-2,6.600649E-2,-4.1299593E-2,-4.733835E-2,4.5681473E-2,2.558355E-2,-7.211781E-2,3.5513245E-2,6.324275E-2,5.319023E-2,-7.190575E-2,-1.9697396E-2,5.793516E-2],"split_indices":[13,13,18,14,13,20,0,11,15,19,13,0,0,20,0,0,0,0,0,0,0,0,19,4,14,21,0,7,14,0,0,0,0,0,14,7,0,6,11,13,0,6,4,15,0,0,0,0,0,0,0,0,0,0,0,0,0,0,0,0,0,0,0,0,0,0,0],"split_type":[0,0,0,0,0,0,0,0,0,0,0,0,0,0,0,0,0,0,0,0,0,0,0,0,0,0,0,0,0,0,0,0,0,0,0,0,0,0,0,0,0,0,0,0,0,0,0,0,0,0,0,0,0,0,0,0,0,0,0,0,0,0,0,0,0,0,0],"sum_hessian":[4.0670767E3,1.2836576E3,2.783419E3,5.994418E1,1.2237134E3,2.0765298E3,7.0688904E2,4.2672146E1,1.7272036E1,1.105646E3,1.1806741E2,1.9891388E3,8.739111E1,4.8568323E2,2.2120583E2,3.7052807E1,5.61934E0,1.4651222E1,2.620813E0,8.9284814E2,2.127979E2,1.5456252E1,1.0261116E2,1.9395925E3,4.9546257E1,4.474167E2,3.826653E1,1.456216E2,7.558423E1,1.0451005E0,1.3606121E1,2.103333E2,2.4645982E0,8.339549E1,1.921567E1,5.6332416E2,1.3762683E3,1.284599E1,3.6700268E1,1.6315918E2,2.842575E2,1.0058925E2,4.5032345E1,6.559108E1,9.993151E0,1.5020381E2,6.0129494E1,2.212831E0,1.7002838E1,1.1586903E2,4.4745514E2,2.7181516E2,1.1044532E3,6.4890604E0,6.35693E0,3.5563084E1,1.1371837E0,1.4134007E2,2.181911E1,2.62836E2,2.1421513E1,6.813277E0,9.377597E1,4.3375885E1,1.6564604E0,1.7224257E1,4.836682E1],"tree_param":{"num_deleted":"0","num_feature":"22","num_nodes":"67","size_leaf_vector":"1"}},{"base_weights":[2.0486992E-2,1.1261088E0,-4.680825E-1,-4.7517547E-1,1.2114294E0,3.7947413E-1,-7.6567847E-1,-6.31718E-2,1.0640106E0,-5.2559324E-2,1.2167958E0,1.5082237E-1,9.070517E-1,-8.738942E-1,6.867623E-2,4.2861465E-1,6.926776E-2,1.2494054E0,9.0781736E-1,3.7559536E-1,-6.4341307E-1,-7.33821E-2,9.890731E-1,-9.37689E-1,1.0419301E0,-6.800895E-2,5.7033073E-2,1.1167537E0,6.359312E-2,-6.1076295E-2,1.2466956E0,2.2324783E-1,1.2677453E0,2.489268E-1,-8.101546E-2,6.9477695E-1,1.1779494E0,-2.3571602E-1,-1.0624875E0,-6.1154615E-2,1.231479E0,5.9856053E-2,-9.504583E-2,3.8750794E-2,6.377945E-2,2.3712493E-2,-5.9365053E-2,-6.0522158E-2,7.094591E-2,-8.014093E-2,3.7147943E-2,6.1274726E-2,-4.7267918E-2,6.0364243E-2,-4.991908E-2,-2.7056629E-2,3.1490088E-2,-2.796717E-2,-6.0439534E-2,-5.1725727E-2,6.490939E-2],"categories":[],"categories_nodes":[],"categories_segments":[],"categories_sizes":[],"default_left":[0,0,0,0,0,0,0,0,0,0,0,0,0,0,0,0,0,0,0,0,0,0,0,0,0,0,0,0,0,0,0,0,0,0,0,0,0,0,0,0,0,0,0,0,0,0,0,0,0,0,0,0,0,0,0,0,0,0,0,0,0],"id":17,"left_children":[1,3,5,7,9,11,13,-1,15,-1,17,19,21,23,-1,25,-1,27,29,31,33,-1,35,37,39,-1,-1,41,-1,-1,43,45,47,49,-1,51,53,55,57,-1,59,-1,-1,-1,-1,-1,-1,-1,-1,-1,-1,-1,-1,-1,-1,-1,-1,-1,-1,-1,-1],"loss_changes":[2.1488533E3,1.671394E2,6.9618036E2,7.704294E1,1.5336548E1,8.643453E1,4.7398474E2,0E0,3.8315754E0,0E0,1.0508179E1,8.9835594E1,4.3676605E1,2.3864233E2,0E0,1.2667933E1,0E0,1.6851807E0,8.375926E1,5.2968304E1,9.72253E1,0E0,1.0862762E1,1.6466089E2,2.8613914E1,0E0,0E0,4.0870056E1,0E0,0E0,3.5809326E-1,1.1947497E2,2.3046303E1,5.5086426E1,0E0,7.478667E1,9.285416E0,7.579315E1,1.16955444E2,0E0,1.0225517E1,0E0,0E0,0E0,0E0,0E0,0E0,0E0,0E0,0E0,0E0,0E0,0E0,0E0,0E0,0E0,0E0,0E0,0E0,0E0,0E0],"parents":[2147483647,0,0,1,1,2,2,3,3,4,4,5,5,6,6,8,8,10,10,11,11,12,12,13,13,15,15,17,17,18,18,19,19,20,20,22,22,23,23,24,24,27,27,30,30,31,31,32,32,33,33,35,35,36,36,37,37,38,38,40,40],"right_children":[2,4,6,8,10,12,14,-1,16,-1,18,20,22,24,-1,26,-1,28,30,32,34,-1,36,38,40,-1,-1,42,-1,-1,44,46,48,50,-1,52,54,56,58,-1,60,-1,-1,-1,-1,-1,-1,-1,-1,-1,-1,-1,-1,-1,-1,-1,-1,-1,-1,-1,-1],"split_conditions":[2.563758E-1,1.25E-2,2E0,1.5422E2,4.99E0,1.1E1,1E0,-6.31718E-2,4.637E1,-5.2559324E-2,8.9561954E-2,5.8E1,7.3010063E-1,1.1E1,6.867623E-2,4E0,6.926776E-2,1.533E1,5.8137155E0,1.4849461E2,7.1366644E0,-7.33821E-2,2.0624E2,4.99E0,3.102E1,-6.800895E-2,5.7033073E-2,5E-2,6.359312E-2,-6.1076295E-2,1.881668E2,3.0073647E1,5.674464E1,1.1377021E1,-8.101546E-2,4.156E1,1.2E1,6E0,3E0,-6.1154615E-2,4E0,5.9856053E-2,-9.504583E-2,3.8750794E-2,6.377945E-2,2.3712493E-2,-5.9365053E-2,-6.0522158E-2,7.094591E-2,-8.014093E-2,3.7147943E-2,6.1274726E-2,-4.7267918E-2,6.0364243E-2,-4.991908E-2,-2.7056629E-2,3.1490088E-2,-2.796717E-2,-6.0439534E-2,-5.1725727E-2,6.490939E-2],"split_indices":[13,13,19,1,1,0,20,0,14,0,13,4,16,0,0,11,0,1,16,15,15,0,1,1,1,0,0,13,0,0,1,15,14,14,0,1,0,7,0,0,6,0,0,0,0,0,0,0,0,0,0,0,0,0,0,0,0,0,0,0,0],"split_type":[0,0,0,0,0,0,0,0,0,0,0,0,0,0,0,0,0,0,0,0,0,0,0,0,0,0,0,0,0,0,0,0,0,0,0,0,0,0,0,0,0,0,0,0,0,0,0,0,0,0,0,0,0,0,0,0,0,0,0,0,0],"sum_hessian":[3.9761074E3,1.218152E3,2.7579553E3,6.139175E1,1.1567601E3,7.166508E2,2.0413046E3,4.071805E1,2.0673702E1,2.2759542E0,1.1544843E3,5.00863E2,2.1578784E2,1.9435764E3,9.7728134E1,7.7276344E0,1.2946068E1,1.0415184E3,1.1296583E2,3.9079343E2,1.1006959E2,6.640413E0,2.0914743E2,1.8814373E3,6.2139164E1,1.9410695E0,5.786565E0,1.5813765E2,8.8338074E2,1.5152212E1,9.7813614E1,3.3486124E2,5.5932182E1,5.791378E1,5.2155807E1,8.3586426E1,1.25561005E2,2.84433E2,1.5970043E3,4.377494E0,5.776167E1,1.5462299E2,3.5146646E0,7.2518387E0,9.0561775E1,2.8483896E2,5.0022274E1,2.8129115E0,5.311927E1,1.1724248E1,4.618953E1,6.3342705E1,2.0243721E1,1.2433038E2,1.2306176E0,2.1052095E2,7.3912056E1,3.6084885E2,1.2361554E3,1.2369386E0,5.652473E1],"tree_param":{"num_deleted":"0","num_feature":"22","num_nodes":"61","size_leaf_vector":"1"}},{"base_weights":[3.8040657E-2,1.103514E0,-4.1976342E-1,-5.767536E-1,1.1925945E0,1.3306156E-1,-8.9534265E-1,-6.289071E-2,5.4295696E-2,-5.5621326E-2,1.1996927E0,-5.2816544E-2,9.851469E-1,-9.572926E-1,7.424115E-2,1.234438E0,8.112651E-1,-2.061715E-1,9.137367E-1,1.032791E0,-7.072338E-2,-1.0738233E0,-4.1715294E-1,6.1957963E-2,8.108829E-1,-6.043732E-2,6.1440613E-2,5.553206E-1,-3.8751718E-1,-6.7084156E-2,1.072198E0,6.479213E-1,1.1971164E0,-5.743935E-1,-1.1798259E0,3.736938E-1,-7.851753E-1,6.0990483E-2,-6.090454E-2,-2.255625E-2,3.994935E-2,2.9529894E-2,-2.6234154E-2,5.7534553E-2,-6.428463E-2,5.8991313E-2,-8.945825E-2,5.1247817E-2,6.244282E-2,1.0706904E-2,-5.2095484E-2,6.542201E-2,-6.0380127E-2,-6.820049E-2,3.166847E-2,6.63966E-2,-5.3837296E-2],"categories":[],"categories_nodes":[],"categories_segments":[],"categories_sizes":[],"default_left":[0,0,0,0,0,0,0,0,0,0,0,0,0,0,0,0,0,0,0,0,0,0,0,0,0,0,0,0,0,0,0,0,0,0,0,0,0,0,0,0,0,0,0,0,0,0,0,0,0,0,0,0,0,0,0,0,0],"id":18,"left_children":[1,3,5,7,9,11,13,-1,-1,-1,15,17,19,21,-1,23,25,27,29,31,-1,33,35,-1,37,-1,-1,39,41,-1,43,45,47,49,51,53,55,-1,-1,-1,-1,-1,-1,-1,-1,-1,-1,-1,-1,-1,-1,-1,-1,-1,-1,-1,-1],"loss_changes":[1.9315795E3,1.7882263E2,7.2835803E2,6.997883E1,1.9831299E1,2.0306732E2,2.2099146E2,0E0,0E0,0E0,1.421582E1,1.5629944E2,2.7709747E1,9.094104E1,0E0,1.0610352E0,8.2030304E1,1.25851654E2,5.304814E1,1.3498611E1,0E0,6.2514893E1,7.5760056E1,0E0,1.3335152E1,0E0,0E0,4.3375263E1,9.897315E1,0E0,2.6553802E1,9.247887E1,1.18377686E-1,7.798603E1,6.956946E1,3.832619E1,1.10649864E2,0E0,0E0,0E0,0E0,0E0,0E0,0E0,0E0,0E0,0E0,0E0,0E0,0E0,0E0,0E0,0E0,0E0,0E0,0E0,0E0],"parents":[2147483647,0,0,1,1,2,2,3,3,4,4,5,5,6,6,10,10,11,11,12,12,13,13,15,15,16,16,17,17,18,18,19,19,21,21,22,22,24,24,27,27,28,28,30,30,31,31,32,32,33,33,34,34,35,35,36,36],"right_children":[2,4,6,8,10,12,14,-1,-1,-1,16,18,20,22,-1,24,26,28,30,32,-1,34,36,-1,38,-1,-1,40,42,-1,44,46,48,50,52,54,56,-1,-1,-1,-1,-1,-1,-1,-1,-1,-1,-1,-1,-1,-1,-1,-1,-1,-1,-1,-1],"split_conditions":[2.563758E-1,1.25E-2,4E0,1.881668E2,4.99E0,1.7143E2,1E0,-6.289071E-2,5.4295696E-2,-5.5621326E-2,8.9561954E-2,1E0,1.2E1,4.566E1,7.424115E-2,1.6E1,5.8137155E0,2.0436592E0,6.2754354E0,1E1,-7.072338E-2,4.99E0,3.2404964E0,6.1957963E-2,1E0,-6.043732E-2,6.1440613E-2,8.610214E-1,4.99E0,-6.7084156E-2,1.9E1,2.3483E2,2.9836E2,3.4E1,9.8774815E-3,9.237895E0,4.78E1,6.0990483E-2,-6.090454E-2,-2.255625E-2,3.994935E-2,2.9529894E-2,-2.6234154E-2,5.7534553E-2,-6.428463E-2,5.8991313E-2,-8.945825E-2,5.1247817E-2,6.244282E-2,1.0706904E-2,-5.2095484E-2,6.542201E-2,-6.0380127E-2,-6.820049E-2,3.166847E-2,6.63966E-2,-5.3837296E-2],"split_indices":[13,13,19,1,1,1,17,0,0,0,13,17,0,1,0,19,16,13,13,0,0,1,13,0,21,0,0,13,1,0,6,1,1,4,16,15,1,0,0,0,0,0,0,0,0,0,0,0,0,0,0,0,0,0,0,0,0],"split_type":[0,0,0,0,0,0,0,0,0,0,0,0,0,0,0,0,0,0,0,0,0,0,0,0,0,0,0,0,0,0,0,0,0,0,0,0,0,0,0,0,0,0,0,0,0,0,0,0,0,0,0,0,0,0,0,0,0],"sum_hessian":[3.958006E3,1.1891107E3,2.7688953E3,5.9591946E1,1.1295188E3,1.2807917E3,1.4881035E3,4.2447945E1,1.7144E1,2.9895537E0,1.1265293E3,1.0521981E3,2.2859367E2,1.4509369E3,3.7166557E1,1.0320345E3,9.449468E1,9.08794E2,1.4340408E2,2.2470183E2,3.8918345E0,1.1926454E3,2.5829163E2,1.0187532E3,1.3281416E1,1.5862091E1,7.863259E1,1.7440105E2,7.3439294E2,8.923715E0,1.3448036E2,6.871232E1,1.5598952E2,2.0993895E2,9.8270636E2,8.202084E1,1.7627077E2,1.1385538E1,1.895878E0,3.3827534E1,1.405735E2,8.991477E1,6.444782E2,1.3064331E2,3.8370614E0,5.6825737E1,1.1886584E1,4.085573E1,1.1513378E2,7.834355E1,1.315954E2,1.0339877E1,9.723665E2,1.0110489E1,7.1910355E1,2.0942099E1,1.5532867E2],"tree_param":{"num_deleted":"0","num_feature":"22","num_nodes":"57","size_leaf_vector":"1"}},{"base_weights":[2.6875796E-2,-5.548909E-1,5.5349773E-1,-5.2043907E-2,-8.6718947E-1,7.5996107E-1,1.6728617E-1,-1.1502209E0,8.764218E-2,2.1819054E-1,-1.0047114E0,6.1183107E-1,1.0823483E0,-1.2601879E-1,6.859613E-1,-6.858555E-2,6.3907677E-1,3.1754634E-1,-6.688093E-1,-6.1518062E-2,5.2992344E-1,-5.434654E-1,-1.1224172E0,-1.542451E-1,7.268756E-1,5.095105E-1,1.115188E0,2.6979905E-1,-4.9687606E-1,2.5870806E-1,1.0569555E0,-5.0411433E-2,6.093029E-2,9.771077E-2,1.0450138E0,-6.925499E-2,8.489648E-1,7.725252E-1,-5.9950706E-2,-7.168896E-2,-5.758428E-2,-1.2093053E0,-3.6547157E-1,-1.0009995E0,9.1394705E-1,-4.012606E-3,8.1088847E-1,-7.4865006E-2,1.0440979E0,1.2923442E0,1.0553875E0,-1.0643884E0,6.1561286E-1,-6.992006E-1,6.398364E-2,-3.4710726E-1,1.2094502E0,-5.816705E-2,1.1159803E0,6.0650315E-2,-8.7530725E-3,5.612993E-2,-5.5420544E-2,-5.0572485E-2,4.77235E-2,4.5462202E-2,-5.6031447E-2,-5.0050255E-2,3.190495E-2,1.6837506E-2,-6.145357E-2,6.88361E-2,-6.270056E-2,-7.2978355E-2,1.8526554E-2,6.2989466E-2,-7.155391E-2,-3.327631E-2,5.8461268E-2,4.1841038E-2,-7.071572E-2,-4.9597934E-2,6.1674416E-2,6.765639E-2,-6.098137E-2,4.1436743E-2,5.563579E-2,-6.830425E-2,2.6780372E-2,2.2145202E-2,1.0856625E-1,-6.1570544E-2,-3.0840256E-3,-7.0620604E-2,2.1553291E-2,7.082493E-2,-5.5321705E-2,1.0514697E-1,4.816254E-2],"categories":[],"categories_nodes":[],"categories_segments":[],"categories_sizes":[],"default_left":[0,0,0,0,0,0,0,0,0,0,0,0,0,0,0,0,0,0,0,0,0,0,0,0,0,0,0,0,0,0,0,0,0,0,0,0,0,0,0,0,0,0,0,0,0,0,0,0,0,0,0,0,0,0,0,0,0,0,0,0,0,0,0,0,0,0,0,0,0,0,0,0,0,0,0,0,0,0,0,0,0,0,0,0,0,0,0,0,0,0,0,0,0,0,0,0,0,0,0],"id":19,"left_children":[1,3,5,7,9,11,13,15,17,19,21,23,25,27,29,-1,31,33,35,-1,37,39,41,43,45,47,49,51,53,55,57,-1,-1,59,61,-1,63,65,-1,-1,67,69,71,73,75,77,79,-1,81,83,85,87,89,91,-1,93,95,-1,97,-1,-1,-1,-1,-1,-1,-1,-1,-1,-1,-1,-1,-1,-1,-1,-1,-1,-1,-1,-1,-1,-1,-1,-1,-1,-1,-1,-1,-1,-1,-1,-1,-1,-1,-1,-1,-1,-1,-1,-1],"loss_changes":[1.1635704E3,2.83331E2,1.5882428E2,1.06315735E2,1.6636407E2,6.1357727E1,1.059237E2,3.187014E1,1.0720263E2,5.7546604E1,5.303534E1,7.8739105E1,7.0987854E0,6.549236E1,3.9584824E1,0E0,1.0103658E1,7.545912E1,1.5741864E2,0E0,4.470838E1,8.765823E1,5.1271057E1,1.0701995E2,4.764261E1,2.7245611E1,2.7108154E0,1.0032378E2,8.3645615E1,6.849539E1,1.889418E1,0E0,0E0,1.1093097E2,1.9546112E1,0E0,1.01315E1,2.4868877E1,0E0,0E0,8.744344E1,2.1954468E1,1.2927348E2,4.1996788E1,4.429517E1,6.3627968E1,4.1337433E1,0E0,8.740129E0,1.5791092E1,2.8851013E0,2.237307E1,4.5303116E1,7.0270134E1,0E0,6.1099083E1,2.3731468E1,0E0,1.776616E1,0E0,0E0,0E0,0E0,0E0,0E0,0E0,0E0,0E0,0E0,0E0,0E0,0E0,0E0,0E0,0E0,0E0,0E0,0E0,0E0,0E0,0E0,0E0,0E0,0E0,0E0,0E0,0E0,0E0,0E0,0E0,0E0,0E0,0E0,0E0,0E0,0E0,0E0,0E0,0E0],"parents":[2147483647,0,0,1,1,2,2,3,3,4,4,5,5,6,6,7,7,8,8,9,9,10,10,11,11,12,12,13,13,14,14,16,16,17,17,18,18,20,20,21,21,22,22,23,23,24,24,25,25,26,26,27,27,28,28,29,29,30,30,33,33,34,34,36,36,37,37,40,40,41,41,42,42,43,43,44,44,45,45,46,46,48,48,49,49,50,50,51,51,52,52,53,53,55,55,56,56,58,58],"right_children":[2,4,6,8,10,12,14,16,18,20,22,24,26,28,30,-1,32,34,36,-1,38,40,42,44,46,48,50,52,54,56,58,-1,-1,60,62,-1,64,66,-1,-1,68,70,72,74,76,78,80,-1,82,84,86,88,90,92,-1,94,96,-1,98,-1,-1,-1,-1,-1,-1,-1,-1,-1,-1,-1,-1,-1,-1,-1,-1,-1,-1,-1,-1,-1,-1,-1,-1,-1,-1,-1,-1,-1,-1,-1,-1,-1,-1,-1,-1,-1,-1,-1,-1],"split_conditions":[2.106E1,4E0,4E0,5E0,1E0,1.5422E2,9.376E1,1.1E1,1E1,7E0,4.84E0,1E0,1E1,4.3E1,3.4E1,-6.858555E-2,1E0,8E0,1.1E1,-6.1518062E-2,5.5E1,9.3247905E-2,5.6E1,4E1,3E1,1.4E1,1E0,3E0,1E0,6.2E1,1.0239E2,-5.0411433E-2,6.093029E-2,4.99E0,4E0,-6.925499E-2,3.2E1,1.9E1,-5.9950706E-2,-7.168896E-2,1.4232539E1,9.8774815E-3,1.0647766E1,6.1059284E0,5.8E1,9.4845764E1,2.3E1,-7.4865006E-2,1.717159E1,2.4765448E1,8E0,5.8137155E0,4.2E1,5.569E1,6.398364E-2,1E0,7.2E1,-5.816705E-2,2.233738E0,6.0650315E-2,-8.7530725E-3,5.612993E-2,-5.5420544E-2,-5.0572485E-2,4.77235E-2,4.5462202E-2,-5.6031447E-2,-5.0050255E-2,3.190495E-2,1.6837506E-2,-6.145357E-2,6.88361E-2,-6.270056E-2,-7.2978355E-2,1.8526554E-2,6.2989466E-2,-7.155391E-2,-3.327631E-2,5.8461268E-2,4.1841038E-2,-7.071572E-2,-4.9597934E-2,6.1674416E-2,6.765639E-2,-6.098137E-2,4.1436743E-2,5.563579E-2,-6.830425E-2,2.6780372E-2,2.2145202E-2,1.0856625E-1,-6.1570544E-2,-3.0840256E-3,-7.0620604E-2,2.1553291E-2,7.082493E-2,-5.5321705E-2,1.0514697E-1,4.816254E-2],"split_indices":[1,19,19,6,0,1,1,0,0,19,1,0,21,4,21,0,17,0,0,0,4,16,21,21,4,6,0,2,20,4,1,0,0,1,11,0,4,6,0,0,15,16,14,16,4,14,6,0,14,16,0,16,4,1,0,9,4,0,16,0,0,0,0,0,0,0,0,0,0,0,0,0,0,0,0,0,0,0,0,0,0,0,0,0,0,0,0,0,0,0,0,0,0,0,0,0,0,0,0],"split_type":[0,0,0,0,0,0,0,0,0,0,0,0,0,0,0,0,0,0,0,0,0,0,0,0,0,0,0,0,0,0,0,0,0,0,0,0,0,0,0,0,0,0,0,0,0,0,0,0,0,0,0,0,0,0,0,0,0,0,0,0,0,0,0,0,0,0,0,0,0,0,0,0,0,0,0,0,0,0,0,0,0,0,0,0,0,0,0,0,0,0,0,0,0,0,0,0,0,0,0],"sum_hessian":[3.79591E3,1.8035021E3,1.9924077E3,6.9140485E2,1.1120973E3,1.297705E3,6.9470276E2,7.72049E1,6.1419995E2,1.2499533E2,9.871019E2,8.9114215E2,4.065628E2,4.442445E2,2.5045827E2,6.890839E1,8.296516E0,4.7148444E2,1.4271548E2,2.1613852E1,1.0338148E2,2.0182828E2,7.852737E2,1.1630847E2,7.748337E2,2.2939142E1,3.8362366E2,2.1502245E2,2.2922206E2,1.1719207E2,1.332662E2,1.9666358E0,6.3298807E0,3.6294064E2,1.085438E2,9.701713E1,4.569835E1,9.1145294E1,1.2236184E1,7.056897E1,1.3125931E2,7.0387933E2,8.139432E1,6.491408E1,5.139439E1,7.9980255E1,6.948534E2,4.446475E0,1.8492666E1,9.1613106E1,2.9201056E2,4.3832798E1,1.7118965E2,2.063303E2,2.2891756E1,7.1968475E1,4.5223587E1,2.9665341E0,1.3029967E2,7.064489E1,2.9229575E2,1.0523116E2,3.3126342E0,1.9916711E0,4.370668E1,8.5491066E1,5.654232E0,5.552398E1,7.573533E1,8.682945E0,6.951964E2,2.7305655E1,5.408866E1,4.8600452E1,1.6313625E1,4.5192257E1,6.2021337E0,5.142036E1,2.8559896E1,6.874657E2,7.3877215E0,1.2131344E0,1.7279533E1,8.989909E1,1.7140096E0,6.206939E1,2.2994116E2,3.7001884E1,6.830911E0,1.5524022E2,1.594944E1,1.119453E2,9.4385E1,3.0035454E1,4.193302E1,4.186873E1,3.3548582E0,1.5750258E1,1.1454941E2],"tree_param":{"num_deleted":"0","num_feature":"22","num_nodes":"99","size_leaf_vector":"1"}},{"base_weights":[4.169962E-2,1.0872378E0,-4.185512E-1,-3.2185468E-1,1.1679113E0,-5.2313495E-1,6.744871E-2,-6.121703E-2,1.0947304E0,-5.277853E-2,1.1740687E0,-6.6093856E-1,7.6830214E-1,7.466671E-1,6.748483E-2,1.2076176E0,8.076883E-1,-7.8247726E-1,9.3203515E-1,9.4198406E-1,-2.0562273E-1,-6.2160738E-2,5.780623E-2,1.1059068E0,6.135881E-2,-5.9323438E-2,1.1643441E0,-1.7791307E-2,-9.2617095E-1,1.2137649E0,-6.527341E-1,4.1715243E-1,1.101422E0,-6.952107E-2,1.148511E0,5.882702E-2,-8.8537455E-2,2.5752535E-2,6.1311085E-2,-2.2368675E-2,2.7201623E-2,-5.9118576E-2,-2.6687412E-2,-7.4709825E-2,7.203046E-2,-7.194284E-2,5.519299E-2,4.425184E-2,-1.0059917E-1,5.8335837E-2,3.731972E-2,7.4734084E-2,-5.6363136E-2],"categories":[],"categories_nodes":[],"categories_segments":[],"categories_sizes":[],"default_left":[0,0,0,0,0,0,0,0,0,0,0,0,0,0,0,0,0,0,0,0,0,0,0,0,0,0,0,0,0,0,0,0,0,0,0,0,0,0,0,0,0,0,0,0,0,0,0,0,0,0,0,0,0],"id":20,"left_children":[1,3,5,7,9,11,-1,-1,13,-1,15,17,19,21,-1,23,25,27,29,31,33,-1,-1,35,-1,-1,37,39,41,43,45,47,49,-1,51,-1,-1,-1,-1,-1,-1,-1,-1,-1,-1,-1,-1,-1,-1,-1,-1,-1,-1],"loss_changes":[1.824351E3,1.3210144E2,4.8732617E2,8.256498E1,1.6247925E1,4.4294806E2,0E0,0E0,1.2332573E0,0E0,1.246814E1,4.3575616E2,4.081868E1,1.1960291E1,0E0,6.31958E-1,6.8781784E1,2.2943677E2,7.211171E1,1.6610733E1,6.122889E1,0E0,0E0,3.6907608E1,0E0,0E0,2.6184616E0,8.021369E1,1.7610242E2,8.568135E1,3.5781044E1,5.763352E1,2.742157E0,0E0,1.5780573E1,0E0,0E0,0E0,0E0,0E0,0E0,0E0,0E0,0E0,0E0,0E0,0E0,0E0,0E0,0E0,0E0,0E0,0E0],"parents":[2147483647,0,0,1,1,2,2,3,3,4,4,5,5,8,8,10,10,11,11,12,12,13,13,15,15,16,16,17,17,18,18,19,19,20,20,23,23,26,26,27,27,28,28,29,29,30,30,31,31,32,32,34,34],"right_children":[2,4,6,8,10,12,-1,-1,14,-1,16,18,20,22,-1,24,26,28,30,32,34,-1,-1,36,-1,-1,38,40,42,44,46,48,50,-1,52,-1,-1,-1,-1,-1,-1,-1,-1,-1,-1,-1,-1,-1,-1,-1,-1,-1,-1],"split_conditions":[2.563758E-1,1.25E-2,1E0,1.5422E2,4.99E0,1.881668E2,6.744871E-2,-6.121703E-2,4.637E1,-5.277853E-2,8.9561954E-2,1E0,4E0,4E0,6.748483E-2,1.533E1,7.687E1,4.99E0,3E0,1.061887E1,4E0,-6.2160738E-2,5.780623E-2,5E-2,6.135881E-2,-5.9323438E-2,3.9738E2,3.88E0,2.106E1,2E0,6E1,5.1825047E0,6.8E1,-6.952107E-2,1.3957551E1,5.882702E-2,-8.8537455E-2,2.5752535E-2,6.1311085E-2,-2.2368675E-2,2.7201623E-2,-5.9118576E-2,-2.6687412E-2,-7.4709825E-2,7.203046E-2,-7.194284E-2,5.519299E-2,4.425184E-2,-1.0059917E-1,5.8335837E-2,3.731972E-2,7.4734084E-2,-5.6363136E-2],"split_indices":[13,13,20,1,1,1,0,0,14,0,13,17,19,11,0,1,1,1,7,15,3,0,0,13,0,0,1,1,1,7,21,15,4,0,14,0,0,0,0,0,0,0,0,0,0,0,0,0,0,0,0,0,0],"split_type":[0,0,0,0,0,0,0,0,0,0,0,0,0,0,0,0,0,0,0,0,0,0,0,0,0,0,0,0,0,0,0,0,0,0,0,0,0,0,0,0,0,0,0,0,0,0,0,0,0,0,0,0,0],"sum_hessian":[3.78923E3,1.157778E3,2.6314521E3,6.25338E1,1.0952441E3,2.485113E3,1.4633908E2,3.8281143E1,2.4252653E1,2.5539696E0,1.0926902E3,2.2459463E3,2.391669E2,1.1915242E1,1.2337412E1,9.989239E2,9.376621E1,2.0872078E3,1.5873836E2,2.0299858E2,3.616833E1,1.6858926E0,1.0229349E1,1.7038924E2,8.2853467E2,1.3872837E1,7.989337E1,3.3034653E2,1.7568613E3,1.3497713E2,2.3761232E1,4.8142227E1,1.5485635E2,1.9276005E1,1.6892326E1,1.668826E2,3.5066338E0,7.7626057E0,7.213077E1,1.8732082E2,1.4302571E2,1.0616986E3,6.951628E2,1.0001153E1,1.2497597E2,1.6540014E1,7.2212176E0,4.089999E1,7.2422338E0,1.2886916E2,2.5987192E1,1.49599695E1,1.9323571E0],"tree_param":{"num_deleted":"0","num_feature":"22","num_nodes":"53","size_leaf_vector":"1"}},{"base_weights":[1.5595398E-3,-4.9601814E-1,4.7449294E-1,-6.747475E-1,2.2202934E-1,3.4146243E-1,9.240122E-1,1.5147981E-1,-7.78478E-1,-4.1754004E-3,9.976796E-1,2.7366486E-1,6.476634E-2,8.0046475E-1,1.1376914E0,4.466511E-1,-6.210838E-2,-2.6650757E-1,-9.235267E-1,-1.1509837E0,3.079193E-1,-5.9533056E-2,1.2213095E0,3.5799116E-1,-6.622729E-1,5.694015E-2,5.8564144E-1,-6.124599E-2,1.1772828E0,1.3080436E-1,1.2037011E0,2.690896E-2,-8.503574E-1,-9.705658E-1,6.745448E-2,-6.865243E-2,-1.4424907E-1,-1.2988806E-1,7.7267915E-1,1.3306557E0,-5.2839506E-2,-7.0377964E-1,4.191994E-1,-1.0809283E0,6.765868E-1,2.0886038E-1,1.0921506E0,6.5330684E-1,1.214187E0,2.4077848E-2,-6.1419852E-2,7.584753E-2,-5.2924108E-2,-6.8997994E-2,1.7984068E-2,-7.317547E-2,-9.3695364E-4,-6.275638E-2,-3.6464766E-2,-5.9830952E-2,4.583366E-2,1.4995693E-2,-4.934446E-2,-2.4015708E-2,4.9747493E-2,-3.6756214E-2,6.8651825E-2,-7.0318095E-2,7.481818E-3,-5.2203972E-2,2.314747E-2,6.806751E-3,-7.202505E-2,5.0778907E-2,-6.439229E-2,-3.8767297E-2,3.2346617E-2,5.8413774E-2,-6.098869E-2,5.3259462E-2,-6.91928E-2,4.5926224E-2,6.369735E-2],"categories":[],"categories_nodes":[],"categories_segments":[],"categories_sizes":[],"default_left":[0,0,0,0,0,0,0,0,0,0,0,0,0,0,0,0,0,0,0,0,0,0,0,0,0,0,0,0,0,0,0,0,0,0,0,0,0,0,0,0,0,0,0,0,0,0,0,0,0,0,0,0,0,0,0,0,0,0,0,0,0,0,0,0,0,0,0,0,0,0,0,0,0,0,0,0,0,0,0,0,0,0,0],"id":21,"left_children":[1,3,5,7,9,11,13,15,17,19,21,23,-1,25,27,29,-1,31,33,35,37,-1,39,41,43,-1,45,-1,47,49,51,53,55,57,-1,-1,59,61,63,65,-1,67,69,71,73,75,77,79,81,-1,-1,-1,-1,-1,-1,-1,-1,-1,-1,-1,-1,-1,-1,-1,-1,-1,-1,-1,-1,-1,-1,-1,-1,-1,-1,-1,-1,-1,-1,-1,-1,-1,-1],"loss_changes":[8.4506415E2,2.2473328E2,1.0978476E2,1.2022821E2,6.1330048E1,9.1624664E1,1.017334E1,6.520412E1,9.222925E1,9.756414E1,4.0076714E1,1.05141174E2,0E0,1.8914597E1,1.5608276E1,3.1028845E1,0E0,4.7360195E1,1.0499957E2,1.2838463E1,4.3702766E1,0E0,1.9365913E1,7.9579636E1,6.2505898E1,0E0,3.1612541E1,0E0,2.0968628E0,4.50011E1,2.872744E1,8.704723E1,4.7114502E1,6.43678E1,0E0,0E0,1.4110159E1,4.125542E1,2.9466953E1,7.0711594E0,0E0,4.030409E1,7.4366974E1,3.7105812E1,1.9199879E1,4.228443E1,1.3908813E1,1.1541939E1,1.2763062E0,0E0,0E0,0E0,0E0,0E0,0E0,0E0,0E0,0E0,0E0,0E0,0E0,0E0,0E0,0E0,0E0,0E0,0E0,0E0,0E0,0E0,0E0,0E0,0E0,0E0,0E0,0E0,0E0,0E0,0E0,0E0,0E0,0E0,0E0],"parents":[2147483647,0,0,1,1,2,2,3,3,4,4,5,5,6,6,7,7,8,8,9,9,10,10,11,11,13,13,14,14,15,15,17,17,18,18,19,19,20,20,22,22,23,23,24,24,26,26,28,28,29,29,30,30,31,31,32,32,33,33,36,36,37,37,38,38,39,39,41,41,42,42,43,43,44,44,45,45,46,46,47,47,48,48],"right_children":[2,4,6,8,10,12,14,16,18,20,22,24,-1,26,28,30,-1,32,34,36,38,-1,40,42,44,-1,46,-1,48,50,52,54,56,58,-1,-1,60,62,64,66,-1,68,70,72,74,76,78,80,82,-1,-1,-1,-1,-1,-1,-1,-1,-1,-1,-1,-1,-1,-1,-1,-1,-1,-1,-1,-1,-1,-1,-1,-1,-1,-1,-1,-1,-1,-1,-1,-1,-1,-1],"split_conditions":[2.143E1,1E0,1.881668E2,3E0,5.674464E1,1E0,5E0,1.478E1,4.99E0,2.1E1,8E0,6.9E1,6.476634E-2,3.7E1,4.7774796E0,4.637E1,-6.210838E-2,4E0,1E0,1.1902863E0,7.3010063E-1,-5.9533056E-2,1E0,1E0,9.376E1,5.694015E-2,6.9E1,-6.124599E-2,5E0,5.5E1,5E0,7.127199E-2,3.5620083E1,4E0,6.745448E-2,-6.865243E-2,1.412E1,1E0,4E0,3.1E1,-5.2839506E-2,3.4E1,2.2E1,1.0931765E1,2.0727148E1,1.828506E1,3.9839333E1,2E0,9.709803E0,2.4077848E-2,-6.1419852E-2,7.584753E-2,-5.2924108E-2,-6.8997994E-2,1.7984068E-2,-7.317547E-2,-9.3695364E-4,-6.275638E-2,-3.6464766E-2,-5.9830952E-2,4.583366E-2,1.4995693E-2,-4.934446E-2,-2.4015708E-2,4.9747493E-2,-3.6756214E-2,6.8651825E-2,-7.0318095E-2,7.481818E-3,-5.2203972E-2,2.314747E-2,6.806751E-3,-7.202505E-2,5.0778907E-2,-6.439229E-2,-3.8767297E-2,3.2346617E-2,5.8413774E-2,-6.098869E-2,5.3259462E-2,-6.91928E-2,4.5926224E-2,6.369735E-2],"split_indices":[1,18,1,0,14,20,2,1,1,21,6,4,0,4,16,14,0,0,20,16,16,0,5,2,1,0,4,0,6,4,2,16,15,0,0,0,14,9,0,4,0,21,4,14,15,16,15,11,15,0,0,0,0,0,0,0,0,0,0,0,0,0,0,0,0,0,0,0,0,0,0,0,0,0,0,0,0,0,0,0,0,0,0],"split_type":[0,0,0,0,0,0,0,0,0,0,0,0,0,0,0,0,0,0,0,0,0,0,0,0,0,0,0,0,0,0,0,0,0,0,0,0,0,0,0,0,0,0,0,0,0,0,0,0,0,0,0,0,0,0,0,0,0,0,0,0,0,0,0,0,0,0,0,0,0,0,0,0,0,0,0,0,0,0,0,0,0,0,0],"sum_hessian":[3.5891106E3,1.7489622E3,1.8401483E3,1.4004388E3,3.4852335E2,1.4212915E3,4.1885675E2,1.5615811E2,1.2442808E3,2.706017E2,7.7921616E1,1.328176E3,9.3115524E1,2.684103E2,1.5044644E2,1.2942558E2,2.6732529E1,2.7532355E2,9.689572E2,5.731325E1,2.1328847E2,6.8237042E0,7.109791E1,1.2189668E3,1.0920919E2,1.0256823E2,1.6584209E2,1.9861246E0,1.4846031E2,9.215192E1,3.7273666E1,1.8387181E2,9.145174E1,9.498695E2,1.9087658E1,4.6657673E1,1.0655579E1,1.10199875E2,1.030886E2,6.8238434E1,2.8594737E0,6.5867905E1,1.1530989E3,8.334137E1,2.5867823E1,9.5909485E1,6.993261E1,1.0998823E1,1.3746149E2,7.37626E1,1.8389313E1,3.3029438E1,4.2442284E0,3.4570507E1,1.493013E2,5.2202797E1,3.924894E1,4.339056E2,5.159639E2,5.2851386E0,5.3704395E0,7.382521E1,3.6374664E1,1.5356931E1,8.773167E1,1.0432111E0,6.719522E1,3.577111E1,3.0096794E1,3.2811413E1,1.1202875E3,1.914882E1,6.419254E1,2.2472828E1,3.3949955E0,2.9303679E1,6.6605804E1,6.818224E1,1.750366E0,9.545911E0,1.4529122E0,2.5864916E1,1.1159657E2],"tree_param":{"num_deleted":"0","num_feature":"22","num_nodes":"83","size_leaf_vector":"1"}},{"base_weights":[5.5718366E-2,1.0604773E0,-3.4914082E-1,-5.819054E-1,1.1414607E0,-7.273856E-1,1.15227446E-1,-6.004427E-2,1.0550795E0,-4.850998E-2,1.1471258E0,-1.9641152E-2,-9.4167227E-1,-1.4115323E-2,1.1715889E0,-5.515781E-2,6.6942506E-2,1.178546E0,8.751853E-1,-7.248169E-2,1.6712601E-1,-1.0479558E0,7.8881043E-1,-2.3539147E-1,8.3937293E-1,-7.1899034E-2,1.2589809E0,1.0445926E0,6.0180683E-2,-5.7775974E-2,5.9180725E-2,-4.5088828E-1,5.4361427E-1,-1.1478012E0,-4.3422654E-1,1.1756228E0,-6.2147707E-2,5.167072E-1,-3.800049E-1,4.4753325E-1,1.0775487E0,6.996157E-2,4.4367152E-1,5.6114256E-2,-8.234223E-2,-6.943406E-2,2.1415947E-2,4.677247E-2,-4.1694425E-2,-2.339382E-2,-6.0637403E-2,-5.101508E-2,1.0472359E-2,-5.7902493E-2,7.032615E-2,-8.315865E-3,4.054243E-2,-1.1911377E-2,-5.5643547E-2,5.001029E-2,-8.9279585E-2,5.6640316E-2,-6.521387E-2,-7.024234E-2,5.590555E-2],"categories":[],"categories_nodes":[],"categories_segments":[],"categories_sizes":[],"default_left":[0,0,0,0,0,0,0,0,0,0,0,0,0,0,0,0,0,0,0,0,0,0,0,0,0,0,0,0,0,0,0,0,0,0,0,0,0,0,0,0,0,0,0,0,0,0,0,0,0,0,0,0,0,0,0,0,0,0,0,0,0,0,0,0,0],"id":22,"left_children":[1,3,5,7,9,11,13,-1,15,-1,17,19,21,23,25,-1,-1,27,29,-1,31,33,35,37,39,-1,41,43,-1,-1,-1,45,47,49,51,53,-1,55,57,59,61,-1,63,-1,-1,-1,-1,-1,-1,-1,-1,-1,-1,-1,-1,-1,-1,-1,-1,-1,-1,-1,-1,-1,-1],"loss_changes":[1.4769224E3,1.3935864E2,4.546583E2,5.1589176E1,1.3005371E1,2.1631177E2,1.5886815E2,0E0,1.0148402E1,0E0,7.4438477E0,8.905301E1,2.0219946E2,1.9600058E2,3.0736084E1,0E0,0E0,1.7189941E0,6.814673E1,0E0,6.888734E1,6.2738037E1,5.1700962E1,8.982909E1,1.945935E1,0E0,1.3473602E1,3.2645294E1,0E0,0E0,0E0,9.312969E1,9.997797E1,3.859973E1,5.5292076E1,3.0842575E1,0E0,2.6921227E1,7.1613266E1,1.0359366E2,1.8874893E1,0E0,2.5950848E1,0E0,0E0,0E0,0E0,0E0,0E0,0E0,0E0,0E0,0E0,0E0,0E0,0E0,0E0,0E0,0E0,0E0,0E0,0E0,0E0,0E0,0E0],"parents":[2147483647,0,0,1,1,2,2,3,3,4,4,5,5,6,6,8,8,10,10,11,11,12,12,13,13,14,14,17,17,18,18,20,20,21,21,22,22,23,23,24,24,26,26,27,27,31,31,32,32,33,33,34,34,35,35,37,37,38,38,39,39,40,40,42,42],"right_children":[2,4,6,8,10,12,14,-1,16,-1,18,20,22,24,26,-1,-1,28,30,-1,32,34,36,38,40,-1,42,44,-1,-1,-1,46,48,50,52,54,-1,56,58,60,62,-1,64,-1,-1,-1,-1,-1,-1,-1,-1,-1,-1,-1,-1,-1,-1,-1,-1,-1,-1,-1,-1,-1,-1],"split_conditions":[2.563758E-1,1.25E-2,2.106E1,1.2312E2,4.99E0,4.99E0,1E0,-6.004427E-2,4.637E1,-4.850998E-2,8.9561954E-2,5.2692804E0,1E0,1.1E1,2E0,-5.515781E-2,6.6942506E-2,1.533E1,5.8137155E0,-7.248169E-2,9.3247905E-2,1E0,3E0,1.5257474E0,2.0624E2,-7.1899034E-2,3E0,5E-2,6.0180683E-2,-5.7775974E-2,5.9180725E-2,1.7996622E1,4E0,9.256667E0,1.334E1,2E0,-6.2147707E-2,2.0727148E1,1E1,4.858E1,1.2E1,6.996157E-2,8E0,5.6114256E-2,-8.234223E-2,-6.943406E-2,2.1415947E-2,4.677247E-2,-4.1694425E-2,-2.339382E-2,-6.0637403E-2,-5.101508E-2,1.0472359E-2,-5.7902493E-2,7.032615E-2,-8.315865E-3,4.054243E-2,-1.1911377E-2,-5.5643547E-2,5.001029E-2,-8.9279585E-2,5.6640316E-2,-6.521387E-2,-7.024234E-2,5.590555E-2],"split_indices":[13,13,1,1,1,1,17,0,14,0,13,15,17,0,7,0,0,1,16,0,16,18,7,13,1,0,7,13,0,0,0,13,0,14,1,7,0,15,19,1,0,0,0,0,0,0,0,0,0,0,0,0,0,0,0,0,0,0,0,0,0,0,0,0,0],"split_type":[0,0,0,0,0,0,0,0,0,0,0,0,0,0,0,0,0,0,0,0,0,0,0,0,0,0,0,0,0,0,0,0,0,0,0,0,0,0,0,0,0,0,0,0,0,0,0,0,0,0,0,0,0,0,0,0,0,0,0,0,0,0,0,0,0],"sum_hessian":[3.6288018E3,1.0417703E3,2.5870315E3,4.8663567E1,9.931066E2,1.425414E3,1.1616176E3,3.5504818E1,1.3158748E1,2.201675E0,9.9090497E2,3.3153024E2,1.0938837E3,1.0357814E3,1.2583626E2,1.1935605E0,1.1965187E1,8.8528516E2,1.0561981E2,3.7517075E1,2.9401318E2,1.0309584E3,6.2925396E1,8.2310626E2,2.1267508E2,3.5767999E0,1.2225946E2,1.4628067E2,7.3900446E2,1.3564481E1,9.205533E1,1.1122959E2,1.8278358E2,8.859552E2,1.4500311E2,5.321548E1,9.709917E0,1.32328E2,6.9077826E2,8.14897E1,1.3118538E2,1.0370399E2,1.8555471E1,1.4274318E2,3.5374885E0,5.354121E1,5.7688377E1,1.4255443E2,4.022916E1,7.7963554E1,8.0799164E2,7.55911E1,6.941201E1,4.4297094E0,4.878577E1,3.9963497E1,9.236451E1,5.799152E2,1.1086304E2,6.576559E1,1.5724114E1,1.2872343E2,2.4619403E0,4.670762E0,1.3884708E1],"tree_param":{"num_deleted":"0","num_feature":"22","num_nodes":"65","size_leaf_vector":"1"}},{"base_weights":[2.405124E-2,1.0498725E0,-3.8519147E-1,-2.910086E-1,1.1347318E0,8.542144E-2,-7.962638E-1,-5.91523E-2,8.723379E-1,1.1698927E0,7.9476565E-1,-9.8200396E-2,7.788522E-1,-8.8511777E-1,6.4165294E-2,9.836581E-1,-3.827001E-2,8.884183E-1,1.1765445E0,-5.7250507E-2,5.8226228E-2,6.0028657E-2,-6.690106E-2,-3.2556903E-1,8.7073296E-1,-9.479992E-1,1.325102E0,6.291891E-1,6.289666E-2,-8.326809E-2,5.514242E-2,5.9625484E-2,1.0697755E0,-5.3287875E-2,6.5653905E-2,-7.20866E-2,9.899674E-1,-7.6193474E-2,9.104867E-1,-4.6049207E-1,-1.0800315E0,-4.3513983E-2,7.201062E-2,-5.5859562E-2,5.6475855E-2,5.5146813E-2,-6.3748285E-2,-1.2835045E-2,2.2779047E-2,-4.5518294E-2,7.058311E-2,-5.756436E-2,4.666764E-2,-3.522572E-2,2.1261122E-2,-6.0426034E-2,-3.549502E-2],"categories":[],"categories_nodes":[],"categories_segments":[],"categories_sizes":[],"default_left":[0,0,0,0,0,0,0,0,0,0,0,0,0,0,0,0,0,0,0,0,0,0,0,0,0,0,0,0,0,0,0,0,0,0,0,0,0,0,0,0,0,0,0,0,0,0,0,0,0,0,0,0,0,0,0,0,0],"id":23,"left_children":[1,3,5,7,9,11,13,-1,15,17,19,21,23,25,-1,27,-1,29,31,-1,-1,33,-1,35,37,39,41,43,-1,-1,-1,-1,45,47,-1,-1,49,-1,51,53,55,-1,-1,-1,-1,-1,-1,-1,-1,-1,-1,-1,-1,-1,-1,-1,-1],"loss_changes":[1.469833E3,1.13938965E2,4.842463E2,6.3527878E1,1.0297241E1,1.4876979E2,2.4799854E2,0E0,5.622879E0,5.4455566E-1,6.671224E1,1.813829E2,2.5104553E1,1.7940894E2,0E0,1.6827965E0,0E0,1.4807034E1,1.328125E-1,0E0,0E0,1.1658003E2,0E0,3.0081165E1,2.290982E1,7.976575E1,1.0319912E1,1.2710405E1,0E0,0E0,0E0,0E0,1.0519714E1,7.810751E1,0E0,0E0,8.938176E0,0E0,1.1588882E1,5.8113056E1,4.5771484E1,0E0,0E0,0E0,0E0,0E0,0E0,0E0,0E0,0E0,0E0,0E0,0E0,0E0,0E0,0E0,0E0],"parents":[2147483647,0,0,1,1,2,2,3,3,4,4,5,5,6,6,8,8,9,9,10,10,11,11,12,12,13,13,15,15,17,17,18,18,21,21,23,23,24,24,25,25,26,26,27,27,32,32,33,33,36,36,38,38,39,39,40,40],"right_children":[2,4,6,8,10,12,14,-1,16,18,20,22,24,26,-1,28,-1,30,32,-1,-1,34,-1,36,38,40,42,44,-1,-1,-1,-1,46,48,-1,-1,50,-1,52,54,56,-1,-1,-1,-1,-1,-1,-1,-1,-1,-1,-1,-1,-1,-1,-1,-1],"split_conditions":[2.563758E-1,1.25E-2,4E0,2.774084E0,8.9561954E-2,1.1E1,1E0,-5.91523E-2,1.5E1,3E0,5.8137155E0,1E1,7.8571427E-1,1E0,6.4165294E-2,6.9E1,-3.827001E-2,9.0343565E-1,8E0,-5.7250507E-2,5.8226228E-2,1E0,-6.690106E-2,5.2E1,2.4E1,1.6717024E-1,7E0,8E0,6.289666E-2,-8.326809E-2,5.514242E-2,5.9625484E-2,8E0,4.7E1,6.5653905E-2,-7.20866E-2,5.8E1,-7.6193474E-2,1E0,1.9E1,1.6291622E0,-4.3513983E-2,7.201062E-2,-5.5859562E-2,5.6475855E-2,5.5146813E-2,-6.3748285E-2,-1.2835045E-2,2.2779047E-2,-4.5518294E-2,7.058311E-2,-5.756436E-2,4.666764E-2,-3.522572E-2,2.1261122E-2,-6.0426034E-2,-3.549502E-2],"split_indices":[13,13,19,16,13,0,20,0,6,6,16,0,16,17,0,4,0,16,19,0,0,20,0,21,4,16,19,0,0,0,0,0,0,21,0,0,4,0,6,19,16,0,0,0,0,0,0,0,0,0,0,0,0,0,0,0,0],"split_type":[0,0,0,0,0,0,0,0,0,0,0,0,0,0,0,0,0,0,0,0,0,0,0,0,0,0,0,0,0,0,0,0,0,0,0,0,0,0,0,0,0,0,0,0,0,0,0,0,0,0,0,0,0,0,0,0,0],"sum_hessian":[3.499224E3,9.974408E2,2.5017834E3,5.922255E1,9.3821826E2,1.1667877E3,1.3349956E3,3.3510357E1,2.5712194E1,8.4806604E2,9.015219E1,9.2318494E2,2.436028E2,1.2808433E3,5.4152355E1,2.4449684E1,1.2625117E0,2.2685566E1,8.253805E2,1.4097784E1,7.6054405E1,8.1954425E2,1.03640724E2,1.8514313E1,2.2508849E2,1.2459663E3,3.487701E1,1.2102545E1,1.2347138E1,1.2331209E0,2.1452444E1,7.091701E2,1.1621041E2,7.524552E2,6.708902E1,9.964249E0,8.550064E0,3.0661082E0,2.2202238E2,2.6648892E2,9.7947736E2,1.4107537E0,3.3466255E1,2.4205987E0,9.681946E0,1.1511204E2,1.0983732E0,5.379235E2,2.1453168E2,1.342295E0,7.207769E0,1.894024E0,2.2012836E2,2.090879E2,5.740102E1,7.25395E2,2.5408229E2],"tree_param":{"num_deleted":"0","num_feature":"22","num_nodes":"57","size_leaf_vector":"1"}},{"base_weights":[3.1365957E-2,1.0352608E0,-3.6733046E-1,-2.5519553E-1,1.1136601E0,1.5685567E-1,-7.069984E-1,-5.860277E-2,1.0490024E0,1.149591E0,7.002645E-1,-3.1572896E-1,4.1996077E-1,-8.4764296E-1,-2.4284065E-1,6.045117E-2,4.5446745E-1,5.9251513E-2,1.0524553E0,-5.6623627E-2,1.1262013E0,6.4243E-1,-5.788638E-1,2.2878067E-1,8.549258E-1,-1.400485E-1,-1.0458112E0,-5.692621E-1,4.389314E-1,-5.392155E-2,4.954428E-2,8.3531785E-1,1.134647E0,3.0141471E-2,5.875072E-2,-6.8179384E-2,9.299307E-1,-8.162535E-1,5.8769596E-1,1.0348773E0,4.572637E-2,-6.595822E-2,9.015277E-1,-9.9715537E-1,2.6119035E-1,8.001632E-2,-1.1367997E0,-6.9000445E-2,-1.6451238E-2,-5.205364E-2,1.3422456E0,4.9792044E-2,-8.759739E-2,2.542669E-2,5.752125E-2,-6.7183875E-2,